{"learner":{"attributes":{"best_iteration":"149","best_score":"0.5011749855029263","scikit_learn":"{\"_estimator_type\": \"classifier\"}"},"feature_names":[],"feature_types":[],"gradient_booster":{"model":{"cats":{"enc":[],"feature_segments":[],"sorted_idx":[]},"gbtree_model_param":{"num_parallel_tree":"1","num_trees":"150"},"iteration_indptr":[0,1,2,3,4,5,6,7,8,9,10,11,12,13,14,15,16,17,18,19,20,21,22,23,24,25,26,27,28,29,30,31,32,33,34,35,36,37,38,39,40,41,42,43,44,45,46,47,48,49,50,51,52,53,54,55,56,57,58,59,60,61,62,63,64,65,66,67,68,69,70,71,72,73,74,75,76,77,78,79,80,81,82,83,84,85,86,87,88,89,90,91,92,93,94,95,96,97,98,99,100,101,102,103,104,105,106,107,108,109,110,111,112,113,114,115,116,117,118,119,120,121,122,123,124,125,126,127,128,129,130,131,132,133,134,135,136,137,138,139,140,141,142,143,144,145,146,147,148,149,150],"tree_info":[0,0,0,0,0,0,0,0,0,0,0,0,0,0,0,0,0,0,0,0,0,0,0,0,0,0,0,0,0,0,0,0,0,0,0,0,0,0,0,0,0,0,0,0,0,0,0,0,0,0,0,0,0,0,0,0,0,0,0,0,0,0,0,0,0,0,0,0,0,0,0,0,0,0,0,0,0,0,0,0,0,0,0,0,0,0,0,0,0,0,0,0,0,0,0,0,0,0,0,0,0,0,0,0,0,0,0,0,0,0,0,0,0,0,0,0,0,0,0,0,0,0,0,0,0,0,0,0,0,0,0,0,0,0,0,0,0,0,0,0,0,0,0,0,0,0,0,0,0,0],"trees":[{"base_weights":[-3.1215444E-5,-8.6242265E-1,4.8801214E-1,-1.2310253E0,-4.6214858E-1,2.4260487E-1,8.7304664E-1,-1.6096236E0,-1.0584068E0,-6.2014806E-1,-3.1780607E-1,2.3713123E-2,3.9079353E-1,6.9248027E-1,1.0451636E0,-1.694037E0,-1.2271788E0,-1.2035642E0,-6.99379E-1,-7.2616845E-1,-3.053328E-1,-5.331961E-1,-2.4178249E-1,-8.745951E-2,1.0955275E-1,2.3969452E-1,4.8438334E-1,9.302783E-1,6.2708944E-1,1.3357478E0,9.7941166E-1,-1.8629127E0,-1.5682051E0,-1.8653433E0,-1.1316531E0,-1.2981559E0,-1.0202525E0,-9.267775E-1,-4.7403455E-1,-8.873281E-1,-5.8448017E-1,-7.6435137E-1,-2.3664983E-1,-2.5574946E-1,-6.7332506E-1,-3.1792125E-1,-6.361379E-2,-2.0402005E-1,-7.296936E-3,6.188132E-2,3.3743387E-1,1.212851E-1,3.603258E-1,5.9069014E-1,4.1881856E-1,1.1533674E0,8.4324247E-1,4.8741573E-1,6.818643E-1,1.4292516E0,1.0873826E0,1.0741405E0,8.6236334E-1,-1.8783199E0,-2.0476295E-1,-1.0755808E0,-1.6037958E0,-1.9350219E0,1.5133865E-1,-1.0274361E0,-1.6179775E0,-1.4349895E0,-1.1953545E0,-9.5085573E-1,-1.3211178E0,-1.1958558E-1,-9.632212E-1,-9.351873E-1,-3.3941546E-1,-6.533076E-1,-1.02025E0,-6.00818E-1,4.2833465E-1,-3.52331E-1,-1.0661137E0,-2.0553325E-1,-1.3754917E0,-2.0549718E-1,-1.9514929E-1,-1.0719814E0,-5.916448E-1,-8.0623704E-1,-2.746332E-1,-1.5109059E-1,1.5476015E-1,-4.4410047E-1,-1.3410339E-1,-1.3167033E0,2.477597E-3,3.1072143E-1,1.4996671E-2,-1.6967368E-1,4.1180828E-1,-5.2873865E-2,1.8866186E-1,4.7481966E-1,2.2175527E-1,7.3507726E-1,4.779422E-1,3.8702503E-1,7.9078835E-1,1.1679819E0,-4.421196E-1,9.1808915E-1,5.881993E-1,5.504878E-1,2.7000615E-1,8.769223E-1,6.443032E-1,1.6403565E0,1.3501805E0,6.868772E-1,1.3110048E0,1.2424182E0,1.0166597E0,7.415523E-1,9.4688207E-1,-1.882822E0,4.834694E-2,3.376813E-1,-1.7303714E-1,-1.2481428E0,2.6761553E-1,-1.6088841E0,1.4926817E-1,1.5133865E-1,-2.007271E-1,-1.2744539E0,-7.871726E-1,-1.7233261E0,3.1151897E-1,-6.0139084E-1,-1.4542254E0,-1.4518069E0,-1.1204808E0,-1.1889793E0,-8.3452445E-1,-5.80071E-1,-1.4903985E0,-1.1671089E0,5.1017576E-1,-1.214161E0,-8.7495726E-1,-1.1002125E0,-3.6350888E-1,-6.597118E-1,-1.24330625E-1,-6.0037935E-1,-1.4596629E0,-1.3259981E0,-8.1535286E-1,-6.2587017E-1,-1.2857088E-1,7.988657E-1,-1.003958E0,-1.8945482E-1,-1.672235E-1,-8.024328E-1,-1.7529069E0,-1.7518694E-2,-3.838553E-1,1.224162E-1,-1.463252E0,1.17394455E-1,-4.042284E-1,8.9544016E-1,-1.1108878E0,-4.640131E-1,-8.622359E-1,1.1157868E-1,-9.618182E-1,-1.4686817E-1,-3.8092515E-1,-1.8831368E-1,3.7492025E-1,-5.3127687E-2,3.4885424E-1,1.13410026E-1,-6.3926893E-1,-2.8299412E-1,7.234679E-3,-1.5944308E0,7.0812005E-1,6.7072496E-2,-1.4276913E-1,7.740385E-1,4.0557954E-2,-1.5201254E0,2.0660423E-2,1.8323869E-1,-5.196144E-1,2.694109E-1,5.983588E-1,1.7606315E-1,-1.6389847E-1,-3.1390616E-1,2.2057484E-1,5.0669605E-1,-4.5403246E-2,4.38801E-1,1.44491345E-2,4.947163E-1,7.866569E-1,3.3205342E-1,5.943415E-1,5.961128E-1,3.5831442E-1,7.0097405E-1,1.0695723E0,1.2190598E0,7.945411E-1,-1.6676722E-1,1.1402376E-1,2.622229E-1,9.462118E-1,8.1224364E-1,3.6162165E-1,2.5510636E-1,6.0913557E-1,5.9130184E-2,6.143496E-1,9.3104017E-1,3.607513E-1,6.141951E-1,9.4054776E-1,-7.554151E-2,1.6500561E0,9.110913E-2,1.3595859E0,-1.7403169E-1,7.4316984E-1,1.3471407E0,6.4413685E-1,6.875759E-1,1.2657262E0,8.7432384E-1,1.0868127E0,4.755169E-1,7.971192E-1,9.8112947E-1,6.430053E-1,-1.8851559E-1,1.224162E-1,-1.4419584E-1,1.1402376E-1,7.931385E-2,-1.5437505E-1,-5.1372003E-2,-1.4707899E-1,-1.4068697E-1,1.6758724E-1,-1.7077757E-1,-1.4544685E-1,-4.634735E-2,-1.3560429E-1,-1.577287E-1,-6.1333157E-2,-1.896474E-1,-6.4443536E-2,-1.514061E-1,1.09125376E-1,-1.2586884E-1,7.6453E-2,-1.5035543E-1,-1.21194996E-1,-1.467241E-1,8.954402E-2,-1.207571E-1,-9.000436E-2,-9.2862934E-2,-1.398627E-1,-5.7979293E-2,-8.997969E-2,-1.6310176E-2,-1.7901812E-1,-1.3199845E-1,-1.7484586E-1,-1.7142963E-1,5.1937606E-3,-1.4574702E-1,1.0600883E-1,-5.2219298E-2,-1.3567683E-1,-8.9177996E-2,1.068547E-1,-1.5958582E-1,-8.119801E-2,8.621369E-2,-8.5472904E-2,1.4748542E-1,-6.8650596E-2,6.713911E-2,-2.1191394E-2,-4.978822E-4,-6.6022776E-2,4.7182836E-2,-1.656501E-1,-1.5789846E-1,-1.13501646E-1,-3.714152E-2,-9.3125336E-2,-6.4229466E-2,-1.6735249E-3,3.3215482E-3,-1.0034797E-1,9.589773E-2,-1.514061E-1,-1.8352507E-1,1.1402376E-1,-3.128269E-2,9.709393E-2,-1.24087825E-1,-7.121528E-3,-1.8612686E-1,5.016883E-2,-4.1058376E-2,2.0561634E-2,-8.632102E-2,-2.8542781E-2,-3.0671218E-2,-1.6228954E-1,-1.7664236E-1,1.5660057E-2,-1.941879E-1,-3.3681907E-2,-1.2112331E-1,1.6427611E-1,-1.1668903E-1,8.442972E-3,-1.923782E-1,-4.3662872E-2,-1.2339009E-1,-6.4730406E-2,4.1537784E-2,-1.3593104E-1,-1.4093401E-2,-1.1670192E-1,-1.6115429E-2,1.0784801E-1,-1.2633468E-2,-4.4921137E-2,-2.238435E-2,3.1191764E-2,9.745809E-2,-6.198099E-2,1.744419E-3,-1.5157107E-1,5.2805867E-2,-6.113338E-3,5.9032567E-2,-2.9355118E-2,-1.7663793E-1,-5.7316877E-2,1.049206E-1,-3.207851E-2,-5.7483565E-2,6.658329E-3,-1.941879E-1,-5.2108794E-2,1.224162E-1,1.7575098E-2,-7.614295E-2,8.514608E-3,6.48362E-2,-1.9682063E-2,8.8935964E-2,1.7344078E-2,-9.623794E-3,2.6725907E-2,-1.9319548E-1,-8.531116E-3,-4.0256097E-3,1.5320669E-2,4.7143694E-2,-1.12074934E-1,-9.496519E-2,1.6639005E-2,2.4428127E-2,1.4184831E-1,8.7814584E-2,2.7890801E-2,2.3769565E-2,-1.5630016E-1,-1.4021046E-1,-1.1136864E-2,-8.903458E-3,-7.684898E-2,1.1100164E-2,3.0405793E-2,5.143584E-2,-1.3462426E-1,-8.46224E-2,4.172528E-2,4.6865202E-2,-4.4664543E-2,-1.3820963E-1,3.921225E-3,6.85514E-2,2.00494E-2,7.945665E-2,-1.219544E-1,1.1768586E-2,4.9915284E-2,6.2592365E-2,-3.0921815E-2,1.8255537E-2,7.770801E-2,3.3250548E-2,6.01681E-2,6.450004E-2,1.2471252E-1,1.19079486E-1,-4.2229924E-2,6.010812E-2,1.2506351E-1,2.8231878E-2,1.2543319E-1,5.2622754E-2,-1.3037354E-1,9.5698915E-2,-4.6849526E-3,-1.5437505E-1,8.4502354E-2,-5.451989E-2,4.580764E-2,3.780112E-2,-2.746447E-2,1.004027E-2,6.4779304E-2,-1.1783775E-2,6.4794146E-2,6.581148E-2,-1.0046028E-1,-6.013063E-3,9.619306E-2,4.4010602E-2,-1.6517125E-1,6.8185806E-2,4.7740247E-2,9.726105E-2,-1.219544E-1,-1.284645E-1,1.224162E-1,1.6895615E-1,1.2858663E-1,1.18046105E-1,-1.6517125E-1,1.3621858E-1,-1.1215078E-1,7.82806E-2,-1.6342328E-1,9.7191855E-2,1.3966535E-1,-1.514061E-1,9.411489E-2,1.5759803E-1,3.3915795E-2,1.18729055E-1,1.4170137E-1,7.704327E-2,1.3207187E-1,-4.463315E-2,1.10053316E-1,1.0621305E-1,4.008943E-2,6.345134E-2,8.768211E-2,6.326115E-2,1.0213631E-1,3.3411446E-3,1.011939E-1],"categories":[],"categories_nodes":[],"categories_segments":[],"categories_sizes":[],"default_left":[0,0,0,0,0,0,0,0,0,0,0,0,0,0,0,0,0,0,0,0,0,0,0,0,0,0,0,0,0,0,0,0,0,0,0,0,0,0,0,0,0,0,0,0,0,0,0,0,0,0,0,0,0,0,0,0,0,0,0,0,0,0,0,0,0,0,0,0,0,0,0,0,0,0,0,0,0,0,0,0,0,0,0,0,0,0,0,0,0,0,0,0,0,0,0,0,0,0,0,0,0,0,0,0,0,0,0,0,0,0,0,0,0,0,0,0,0,0,0,0,0,0,0,0,0,0,0,0,0,0,0,0,0,0,0,0,0,0,0,0,0,0,0,0,0,0,0,0,0,0,0,0,0,0,0,0,0,0,0,0,0,0,0,0,0,0,0,0,0,0,0,0,0,0,0,0,0,0,0,0,0,0,0,0,0,0,0,0,0,0,0,0,0,0,0,0,0,0,0,0,0,0,0,0,0,0,0,0,0,0,0,0,0,0,0,0,0,0,0,0,0,0,0,0,0,0,0,0,0,0,0,0,0,0,0,0,0,0,0,0,0,0,0,0,0,0,0,0,0,0,0,0,0,0,0,0,0,0,0,0,0,0,0,0,0,0,0,0,0,0,0,0,0,0,0,0,0,0,0,0,0,0,0,0,0,0,0,0,0,0,0,0,0,0,0,0,0,0,0,0,0,0,0,0,0,0,0,0,0,0,0,0,0,0,0,0,0,0,0,0,0,0,0,0,0,0,0,0,0,0,0,0,0,0,0,0,0,0,0,0,0,0,0,0,0,0,0,0,0,0,0,0,0,0,0,0,0,0,0,0,0,0,0,0,0,0,0,0,0,0,0,0,0,0,0,0,0,0,0,0,0,0,0,0,0,0,0,0,0,0,0,0,0,0,0,0,0,0,0,0,0,0,0,0,0,0,0,0,0,0,0,0,0,0,0,0,0,0,0,0,0,0,0,0,0,0,0,0,0,0,0,0,0,0,0,0,0,0,0,0,0,0,0,0,0,0,0,0,0,0,0,0,0,0,0,0,0,0,0,0,0,0,0,0,0,0,0,0,0,0,0,0,0,0,0,0,0,0,0,0,0],"id":0,"left_children":[1,3,5,7,9,11,13,15,17,19,21,23,25,27,29,31,33,35,37,39,41,43,45,47,49,51,53,55,57,59,61,63,65,67,69,71,73,75,77,79,81,83,85,87,89,91,93,95,97,99,101,103,105,107,109,111,113,115,117,119,121,123,125,127,129,131,133,135,-1,137,139,141,143,145,147,149,151,153,155,157,159,161,163,165,167,169,171,173,-1,175,177,179,181,183,185,187,189,191,193,195,197,199,201,203,205,207,209,211,213,215,217,219,221,223,225,227,229,231,233,235,237,239,241,243,245,247,249,251,253,255,-1,257,259,261,-1,-1,-1,263,265,267,269,271,273,275,277,279,281,283,285,287,289,291,293,295,297,299,301,303,305,307,309,311,313,315,317,-1,319,321,323,325,327,-1,329,331,333,335,337,339,341,343,345,347,349,351,353,355,357,359,361,363,365,367,369,371,373,375,377,379,381,383,385,387,389,391,393,395,397,399,401,403,405,407,409,411,413,415,417,419,421,423,425,-1,-1,427,429,431,433,435,437,439,441,443,445,447,449,451,453,455,457,-1,459,461,463,465,467,469,471,473,475,477,479,-1,-1,-1,-1,-1,-1,-1,-1,-1,-1,-1,-1,-1,-1,-1,-1,-1,-1,-1,-1,-1,-1,-1,-1,-1,-1,-1,-1,-1,-1,-1,-1,-1,-1,-1,-1,-1,-1,-1,-1,-1,-1,-1,-1,-1,-1,-1,-1,-1,-1,-1,-1,-1,-1,-1,-1,-1,-1,-1,-1,-1,-1,-1,-1,-1,-1,-1,-1,-1,-1,-1,-1,-1,-1,-1,-1,-1,-1,-1,-1,-1,-1,-1,-1,-1,-1,-1,-1,-1,-1,-1,-1,-1,-1,-1,-1,-1,-1,-1,-1,-1,-1,-1,-1,-1,-1,-1,-1,-1,-1,-1,-1,-1,-1,-1,-1,-1,-1,-1,-1,-1,-1,-1,-1,-1,-1,-1,-1,-1,-1,-1,-1,-1,-1,-1,-1,-1,-1,-1,-1,-1,-1,-1,-1,-1,-1,-1,-1,-1,-1,-1,-1,-1,-1,-1,-1,-1,-1,-1,-1,-1,-1,-1,-1,-1,-1,-1,-1,-1,-1,-1,-1,-1,-1,-1,-1,-1,-1,-1,-1,-1,-1,-1,-1,-1,-1,-1,-1,-1,-1,-1,-1,-1,-1,-1,-1,-1,-1,-1,-1,-1,-1,-1,-1,-1,-1,-1,-1,-1,-1,-1,-1,-1,-1,-1,-1,-1,-1,-1,-1,-1,-1,-1,-1,-1,-1,-1,-1,-1,-1],"loss_changes":[5.5475516E4,7.0275547E3,7.953252E3,1.6189062E3,5.2064404E2,1.6675452E3,1.01755664E3,2.485625E2,8.869492E2,3.6365527E2,1.9533264E2,1.9806989E2,4.3338818E2,2.4810303E2,3.1916406E2,1.3217188E2,8.3686035E1,2.0899219E2,2.5100293E2,1.856919E2,8.6463165E1,1.20864624E2,1.1968982E2,8.449843E1,1.2721199E2,1.6746484E2,1.316875E2,6.596094E1,9.565723E1,7.0257324E1,1.5077441E2,6.882422E1,6.2256836E1,4.57052E1,6.0510986E1,1.1077637E2,8.504053E1,7.169922E1,1.5280957E2,1.1795239E2,7.2113525E1,4.4042343E1,8.448282E1,8.876283E1,6.670093E1,1.3046082E2,5.0517307E1,6.179654E1,6.859688E1,1.1301206E2,7.648189E1,6.947169E1,9.205005E1,1.1716138E2,1.3819702E2,2.3011475E1,4.6867676E1,4.8363586E1,6.544629E1,3.5230957E1,7.522046E1,7.184082E1,6.183838E1,2.337207E1,2.2152773E1,5.8029816E1,5.5993164E1,4.7502136E1,0E0,5.9115234E1,4.418799E1,5.405664E1,8.616943E1,9.21416E1,9.599109E1,7.091835E1,5.066992E1,5.212738E1,1.3155676E2,5.8196777E1,1.5116309E2,5.0484253E1,3.7697475E1,4.3226097E1,3.5849014E1,7.809719E1,1.6265564E1,6.5328964E1,0E0,2.7816742E1,5.8949158E1,7.1918945E1,7.708569E1,3.703301E1,3.054341E1,9.045923E1,6.009018E1,2.346125E1,4.992898E1,1.9220041E2,7.091201E1,3.2185402E1,4.678195E1,4.2020103E1,6.852951E1,5.2751648E1,1.1832283E2,3.8828613E1,6.868268E1,6.456677E1,2.2316956E1,1.7271606E1,2.0289843E1,3.513318E1,2.8450851E1,4.7333435E1,5.7874043E1,4.022583E1,6.684155E1,1.0221191E1,1.9269287E1,4.318857E1,1.2248779E1,2.3957031E1,5.5356445E1,3.695923E1,3.6835938E1,2.1726562E1,1.341295E1,1.8416895E1,0E0,3.5342102E1,7.112432E1,4.937793E1,0E0,0E0,0E0,3.2312317E1,6.992319E1,3.6845642E1,1.8683657E1,7.186507E1,3.818701E1,3.8624268E1,6.694043E1,5.879956E1,3.70885E1,7.297944E1,2.5304565E1,2.6990185E1,7.4334785E1,5.9010376E1,5.75636E1,6.035797E1,7.672596E1,4.4904694E1,7.989794E1,4.634085E1,3.2929657E1,4.5244263E1,7.465515E1,4.059253E1,3.068788E1,2.2112247E1,2.8351124E1,0E0,2.3053612E1,4.8160797E1,1.4670929E1,9.9632835E1,5.6162003E1,0E0,1.0917587E1,2.8960434E1,6.4644E1,1.3559306E1,2.3130096E1,4.59252E1,4.3105743E1,3.3537086E1,7.228635E1,4.5359676E1,5.383893E1,3.1416134E1,7.522313E1,3.781854E1,2.878648E1,4.2143925E1,4.483983E1,7.0344246E1,5.0674828E1,1.2126427E1,1.2910197E0,5.5221436E1,7.01783E1,3.902072E1,3.0142527E1,1.7550514E1,6.559597E1,4.9425163E1,3.8724792E1,2.8644592E1,6.80542E1,5.8251236E1,7.223921E1,2.6026882E1,3.6686462E1,4.3231934E1,6.8712585E1,3.416597E1,4.6607178E1,3.1388031E1,4.226953E1,6.450273E1,6.4539246E1,9.725366E1,5.9412598E1,2.0584503E1,4.075464E1,1.5625732E1,2.741957E1,0E0,0E0,3.3864277E1,1.9726807E1,2.3230804E1,2.5032124E1,2.9782988E1,4.4901184E1,5.1730576E1,2.2115204E1,4.0278076E1,2.2992989E1,6.320923E1,4.9352783E1,8.433886E0,6.506836E0,2.7038382E1,1.2012207E1,0E0,2.9584076E1,8.217957E0,2.0587711E1,2.4099972E1,2.0165771E1,8.555823E1,7.986084E1,1.8786346E1,2.6502808E1,4.4696045E1,8.262767E1,0E0,0E0,0E0,0E0,0E0,0E0,0E0,0E0,0E0,0E0,0E0,0E0,0E0,0E0,0E0,0E0,0E0,0E0,0E0,0E0,0E0,0E0,0E0,0E0,0E0,0E0,0E0,0E0,0E0,0E0,0E0,0E0,0E0,0E0,0E0,0E0,0E0,0E0,0E0,0E0,0E0,0E0,0E0,0E0,0E0,0E0,0E0,0E0,0E0,0E0,0E0,0E0,0E0,0E0,0E0,0E0,0E0,0E0,0E0,0E0,0E0,0E0,0E0,0E0,0E0,0E0,0E0,0E0,0E0,0E0,0E0,0E0,0E0,0E0,0E0,0E0,0E0,0E0,0E0,0E0,0E0,0E0,0E0,0E0,0E0,0E0,0E0,0E0,0E0,0E0,0E0,0E0,0E0,0E0,0E0,0E0,0E0,0E0,0E0,0E0,0E0,0E0,0E0,0E0,0E0,0E0,0E0,0E0,0E0,0E0,0E0,0E0,0E0,0E0,0E0,0E0,0E0,0E0,0E0,0E0,0E0,0E0,0E0,0E0,0E0,0E0,0E0,0E0,0E0,0E0,0E0,0E0,0E0,0E0,0E0,0E0,0E0,0E0,0E0,0E0,0E0,0E0,0E0,0E0,0E0,0E0,0E0,0E0,0E0,0E0,0E0,0E0,0E0,0E0,0E0,0E0,0E0,0E0,0E0,0E0,0E0,0E0,0E0,0E0,0E0,0E0,0E0,0E0,0E0,0E0,0E0,0E0,0E0,0E0,0E0,0E0,0E0,0E0,0E0,0E0,0E0,0E0,0E0,0E0,0E0,0E0,0E0,0E0,0E0,0E0,0E0,0E0,0E0,0E0,0E0,0E0,0E0,0E0,0E0,0E0,0E0,0E0,0E0,0E0,0E0,0E0,0E0,0E0,0E0,0E0,0E0,0E0,0E0,0E0,0E0,0E0,0E0,0E0,0E0,0E0,0E0,0E0,0E0,0E0,0E0,0E0,0E0,0E0,0E0,0E0],"parents":[2147483647,0,0,1,1,2,2,3,3,4,4,5,5,6,6,7,7,8,8,9,9,10,10,11,11,12,12,13,13,14,14,15,15,16,16,17,17,18,18,19,19,20,20,21,21,22,22,23,23,24,24,25,25,26,26,27,27,28,28,29,29,30,30,31,31,32,32,33,33,34,34,35,35,36,36,37,37,38,38,39,39,40,40,41,41,42,42,43,43,44,44,45,45,46,46,47,47,48,48,49,49,50,50,51,51,52,52,53,53,54,54,55,55,56,56,57,57,58,58,59,59,60,60,61,61,62,62,63,63,64,64,65,65,66,66,67,67,69,69,70,70,71,71,72,72,73,73,74,74,75,75,76,76,77,77,78,78,79,79,80,80,81,81,82,82,83,83,84,84,85,85,86,86,87,87,89,89,90,90,91,91,92,92,93,93,94,94,95,95,96,96,97,97,98,98,99,99,100,100,101,101,102,102,103,103,104,104,105,105,106,106,107,107,108,108,109,109,110,110,111,111,112,112,113,113,114,114,115,115,116,116,117,117,118,118,119,119,120,120,121,121,122,122,123,123,124,124,125,125,126,126,127,127,128,128,129,129,131,131,132,132,133,133,137,137,138,138,139,139,140,140,141,141,142,142,143,143,144,144,145,145,146,146,147,147,148,148,149,149,150,150,151,151,152,152,153,153,154,154,155,155,156,156,157,157,158,158,159,159,160,160,161,161,162,162,163,163,164,164,166,166,167,167,168,168,169,169,170,170,172,172,173,173,174,174,175,175,176,176,177,177,178,178,179,179,180,180,181,181,182,182,183,183,184,184,185,185,186,186,187,187,188,188,189,189,190,190,191,191,192,192,193,193,194,194,195,195,196,196,197,197,198,198,199,199,200,200,201,201,202,202,203,203,204,204,205,205,206,206,207,207,208,208,209,209,210,210,211,211,212,212,213,213,214,214,215,215,216,216,217,217,218,218,219,219,220,220,223,223,224,224,225,225,226,226,227,227,228,228,229,229,230,230,231,231,232,232,233,233,234,234,235,235,236,236,237,237,238,238,240,240,241,241,242,242,243,243,244,244,245,245,246,246,247,247,248,248,249,249,250,250],"right_children":[2,4,6,8,10,12,14,16,18,20,22,24,26,28,30,32,34,36,38,40,42,44,46,48,50,52,54,56,58,60,62,64,66,68,70,72,74,76,78,80,82,84,86,88,90,92,94,96,98,100,102,104,106,108,110,112,114,116,118,120,122,124,126,128,130,132,134,136,-1,138,140,142,144,146,148,150,152,154,156,158,160,162,164,166,168,170,172,174,-1,176,178,180,182,184,186,188,190,192,194,196,198,200,202,204,206,208,210,212,214,216,218,220,222,224,226,228,230,232,234,236,238,240,242,244,246,248,250,252,254,256,-1,258,260,262,-1,-1,-1,264,266,268,270,272,274,276,278,280,282,284,286,288,290,292,294,296,298,300,302,304,306,308,310,312,314,316,318,-1,320,322,324,326,328,-1,330,332,334,336,338,340,342,344,346,348,350,352,354,356,358,360,362,364,366,368,370,372,374,376,378,380,382,384,386,388,390,392,394,396,398,400,402,404,406,408,410,412,414,416,418,420,422,424,426,-1,-1,428,430,432,434,436,438,440,442,444,446,448,450,452,454,456,458,-1,460,462,464,466,468,470,472,474,476,478,480,-1,-1,-1,-1,-1,-1,-1,-1,-1,-1,-1,-1,-1,-1,-1,-1,-1,-1,-1,-1,-1,-1,-1,-1,-1,-1,-1,-1,-1,-1,-1,-1,-1,-1,-1,-1,-1,-1,-1,-1,-1,-1,-1,-1,-1,-1,-1,-1,-1,-1,-1,-1,-1,-1,-1,-1,-1,-1,-1,-1,-1,-1,-1,-1,-1,-1,-1,-1,-1,-1,-1,-1,-1,-1,-1,-1,-1,-1,-1,-1,-1,-1,-1,-1,-1,-1,-1,-1,-1,-1,-1,-1,-1,-1,-1,-1,-1,-1,-1,-1,-1,-1,-1,-1,-1,-1,-1,-1,-1,-1,-1,-1,-1,-1,-1,-1,-1,-1,-1,-1,-1,-1,-1,-1,-1,-1,-1,-1,-1,-1,-1,-1,-1,-1,-1,-1,-1,-1,-1,-1,-1,-1,-1,-1,-1,-1,-1,-1,-1,-1,-1,-1,-1,-1,-1,-1,-1,-1,-1,-1,-1,-1,-1,-1,-1,-1,-1,-1,-1,-1,-1,-1,-1,-1,-1,-1,-1,-1,-1,-1,-1,-1,-1,-1,-1,-1,-1,-1,-1,-1,-1,-1,-1,-1,-1,-1,-1,-1,-1,-1,-1,-1,-1,-1,-1,-1,-1,-1,-1,-1,-1,-1,-1,-1,-1,-1,-1,-1,-1,-1,-1,-1,-1,-1,-1,-1,-1,-1,-1,-1],"split_conditions":[-2.4295522E-1,-5.729493E-1,6.809384E-1,-8.8000774E-1,-4.1013417E-1,5.9016578E-2,1.3333987E0,7.869237E-2,1.20107286E-1,3.3227488E-1,-1.9798654E-1,-3.1110927E-1,-3.8282156E-1,-9.9814683E-1,-2.5549133E0,-1.0048946E0,-1.0407279E0,-6.737964E-1,4.4443738E-2,-2.556122E-1,9.834513E-2,-7.3502004E-1,1.4623742E-1,-1.22481756E-1,6.1695987E-1,3.3104926E-1,-3.4010887E-1,-1.2308692E0,-5.6179905E-1,3.6299425E-1,-2.813697E-1,5.7070583E-1,-8.867586E-1,5.496497E-1,2.1292204E-1,-1.0474837E-1,-4.6167633E-1,-8.47553E-1,1.1610625E-1,-4.4258106E-1,6.395627E-1,4.06147E-1,1.4338746E0,2.5278535E-1,-7.2307086E-1,-8.415326E-1,3.4934247E-1,-6.0572666E-1,-1.5589548E0,-1.4675589E0,-2.3333539E-1,-7.356799E-1,3.2083067E-1,-7.2170246E-1,2.0904717E0,2.7974994E0,-2.4160081E-1,1.1135433E0,-1.2308692E0,-3.1918044E0,3.0963688E0,-1.1536862E0,1.7255746E0,4.1358456E-1,-5.809808E-1,-8.9221036E-1,-2.868034E-1,-1.0297375E0,1.5133865E-1,1.4291404E-1,2.2021866E0,-9.921003E-1,-2.716257E-1,-6.5777826E-1,-6.0683596E-1,-1.6410282E-1,-4.3589717E-1,7.397366E-1,-2.2351901E-1,-1.309241E-1,-6.9846176E-2,1.2180097E0,1.9806597E-1,-4.765553E-1,4.09928E-1,-4.6692437E-1,-1.7672653E0,-3.5625803E-1,-1.9514929E-1,-2.1029124E0,-2.7907655E-1,-4.9479166E-1,-4.1999236E-1,1.317544E0,7.0264596E-1,-4.8704234E-1,4.4443738E-2,1.8889669E0,-1.6686628E-2,-5.7082075E-1,-2.2008803E0,3.692053E-1,-5.531497E-2,-3.543215E-1,-1.2136033E0,1.2248017E0,-8.019686E-2,1.5995193E-1,3.0730492E-1,-8.4563154E-1,1.67356E0,-8.800797E-1,-2.310965E0,-2.5283616E0,2.929367E-1,-8.452933E-1,2.0561996E0,1.3373159E0,2.525068E0,-9.641119E-1,2.2788528E-1,-1.8514332E0,4.0136514E0,-2.5283616E0,-2.129333E0,-6.221003E-1,4.156135E0,-5.1148903E-1,-2.4023731E-1,7.5711036E-1,-1.7303714E-1,-4.1073376E-1,1.2403979E-1,-1.0953594E-2,1.4926817E-1,1.5133865E-1,-2.007271E-1,-8.3127165E-1,3.99555E-1,-7.2038347E-1,4.4443738E-2,-7.00395E-1,-1.8179726E-2,-3.1622195E-1,1.2703034E-1,-5.2684963E-2,-2.3333539E-1,-4.7775486E-1,-3.530679E-1,-5.5396956E-1,1.9560704E-1,-1.0672935E0,1.0452787E0,-6.916412E-1,-6.064846E-1,-1.1951164E0,-7.384919E-1,-5.566021E-1,-8.804711E-1,-4.9719402E-1,3.8126774E-2,1.6514229E0,-3.617852E-1,7.4149567E-1,-9.493451E-2,-1.8945482E-1,-2.0301762E-1,9.125076E-2,9.424663E-2,-5.159101E-1,-6.928079E-1,1.224162E-1,-7.2313344E-1,-2.209429E0,-5.737631E-1,-3.213073E-1,-2.6933951E-2,-6.787658E-1,-3.2669607E-1,-3.1416818E-1,-1.1186967E0,2.834305E0,-5.6667358E-2,9.0893084E-1,-3.7874672E-1,1.266456E0,8.584495E-1,-4.8887452E-1,-4.6692437E-1,-1.1242036E0,-9.190532E-1,-1.1267984E-2,-4.0237746E-1,-1.5268792E0,-1.1993791E0,-9.7664297E-1,-8.5668534E-2,1.1978073E0,4.20699E-1,-3.9213192E-1,5.1315886E-1,3.3667831E0,7.868534E-1,7.5194836E-1,-8.791242E-1,-4.8704234E-1,1.6939987E-1,1.4941405E0,2.7190205E-2,1.6330099E0,-1.4035708E-4,-5.128513E-1,1.2972646E0,-8.223029E-1,1.1073776E0,-1.0530953E0,1.4849161E0,2.0191493E0,1.5299741E0,-5.0893366E-1,6.0180306E-1,-1.6676722E-1,1.1402376E-1,-1.4342923E0,2.593175E0,-1.378048E-1,-1.8677664E-1,-6.033844E-1,-8.124449E-3,1.9178116E0,2.834305E0,-2.373329E0,1.7178675E0,6.713668E-1,3.739005E0,1.4128157E-1,2.2614466E-1,-2.815588E-1,3.84319E0,-1.7403169E-1,2.706009E0,-1.5916878E-1,7.696319E-1,-1.780701E0,2.1053586E0,4.156135E0,6.504828E-1,-5.102886E-1,9.2713153E-1,-1.3110338E0,1.6383207E0,-1.8851559E-1,1.224162E-1,-1.4419584E-1,1.1402376E-1,7.931385E-2,-1.5437505E-1,-5.1372003E-2,-1.4707899E-1,-1.4068697E-1,1.6758724E-1,-1.7077757E-1,-1.4544685E-1,-4.634735E-2,-1.3560429E-1,-1.577287E-1,-6.1333157E-2,-1.896474E-1,-6.4443536E-2,-1.514061E-1,1.09125376E-1,-1.2586884E-1,7.6453E-2,-1.5035543E-1,-1.21194996E-1,-1.467241E-1,8.954402E-2,-1.207571E-1,-9.000436E-2,-9.2862934E-2,-1.398627E-1,-5.7979293E-2,-8.997969E-2,-1.6310176E-2,-1.7901812E-1,-1.3199845E-1,-1.7484586E-1,-1.7142963E-1,5.1937606E-3,-1.4574702E-1,1.0600883E-1,-5.2219298E-2,-1.3567683E-1,-8.9177996E-2,1.068547E-1,-1.5958582E-1,-8.119801E-2,8.621369E-2,-8.5472904E-2,1.4748542E-1,-6.8650596E-2,6.713911E-2,-2.1191394E-2,-4.978822E-4,-6.6022776E-2,4.7182836E-2,-1.656501E-1,-1.5789846E-1,-1.13501646E-1,-3.714152E-2,-9.3125336E-2,-6.4229466E-2,-1.6735249E-3,3.3215482E-3,-1.0034797E-1,9.589773E-2,-1.514061E-1,-1.8352507E-1,1.1402376E-1,-3.128269E-2,9.709393E-2,-1.24087825E-1,-7.121528E-3,-1.8612686E-1,5.016883E-2,-4.1058376E-2,2.0561634E-2,-8.632102E-2,-2.8542781E-2,-3.0671218E-2,-1.6228954E-1,-1.7664236E-1,1.5660057E-2,-1.941879E-1,-3.3681907E-2,-1.2112331E-1,1.6427611E-1,-1.1668903E-1,8.442972E-3,-1.923782E-1,-4.3662872E-2,-1.2339009E-1,-6.4730406E-2,4.1537784E-2,-1.3593104E-1,-1.4093401E-2,-1.1670192E-1,-1.6115429E-2,1.0784801E-1,-1.2633468E-2,-4.4921137E-2,-2.238435E-2,3.1191764E-2,9.745809E-2,-6.198099E-2,1.744419E-3,-1.5157107E-1,5.2805867E-2,-6.113338E-3,5.9032567E-2,-2.9355118E-2,-1.7663793E-1,-5.7316877E-2,1.049206E-1,-3.207851E-2,-5.7483565E-2,6.658329E-3,-1.941879E-1,-5.2108794E-2,1.224162E-1,1.7575098E-2,-7.614295E-2,8.514608E-3,6.48362E-2,-1.9682063E-2,8.8935964E-2,1.7344078E-2,-9.623794E-3,2.6725907E-2,-1.9319548E-1,-8.531116E-3,-4.0256097E-3,1.5320669E-2,4.7143694E-2,-1.12074934E-1,-9.496519E-2,1.6639005E-2,2.4428127E-2,1.4184831E-1,8.7814584E-2,2.7890801E-2,2.3769565E-2,-1.5630016E-1,-1.4021046E-1,-1.1136864E-2,-8.903458E-3,-7.684898E-2,1.1100164E-2,3.0405793E-2,5.143584E-2,-1.3462426E-1,-8.46224E-2,4.172528E-2,4.6865202E-2,-4.4664543E-2,-1.3820963E-1,3.921225E-3,6.85514E-2,2.00494E-2,7.945665E-2,-1.219544E-1,1.1768586E-2,4.9915284E-2,6.2592365E-2,-3.0921815E-2,1.8255537E-2,7.770801E-2,3.3250548E-2,6.01681E-2,6.450004E-2,1.2471252E-1,1.19079486E-1,-4.2229924E-2,6.010812E-2,1.2506351E-1,2.8231878E-2,1.2543319E-1,5.2622754E-2,-1.3037354E-1,9.5698915E-2,-4.6849526E-3,-1.5437505E-1,8.4502354E-2,-5.451989E-2,4.580764E-2,3.780112E-2,-2.746447E-2,1.004027E-2,6.4779304E-2,-1.1783775E-2,6.4794146E-2,6.581148E-2,-1.0046028E-1,-6.013063E-3,9.619306E-2,4.4010602E-2,-1.6517125E-1,6.8185806E-2,4.7740247E-2,9.726105E-2,-1.219544E-1,-1.284645E-1,1.224162E-1,1.6895615E-1,1.2858663E-1,1.18046105E-1,-1.6517125E-1,1.3621858E-1,-1.1215078E-1,7.82806E-2,-1.6342328E-1,9.7191855E-2,1.3966535E-1,-1.514061E-1,9.411489E-2,1.5759803E-1,3.3915795E-2,1.18729055E-1,1.4170137E-1,7.704327E-2,1.3207187E-1,-4.463315E-2,1.10053316E-1,1.0621305E-1,4.008943E-2,6.345134E-2,8.768211E-2,6.326115E-2,1.0213631E-1,3.3411446E-3,1.011939E-1],"split_indices":[6,6,6,6,6,6,6,1,1,9,2,7,7,5,10,6,6,6,10,7,2,11,7,6,1,6,10,10,7,12,9,10,4,3,2,9,4,15,9,11,2,9,10,4,9,10,2,0,1,5,3,7,4,11,7,4,9,9,10,2,6,5,15,3,17,15,15,9,0,9,0,10,10,15,3,10,10,10,7,4,1,10,10,10,10,15,11,10,0,10,4,15,4,10,7,10,10,3,4,10,0,10,6,5,9,3,10,6,6,9,3,8,3,0,10,0,1,11,8,7,4,1,9,0,2,7,15,15,7,10,0,7,10,2,0,0,0,4,5,15,10,6,1,15,7,3,3,15,12,4,9,10,9,15,7,3,4,1,10,6,0,11,15,3,4,0,4,10,2,6,7,0,7,5,15,2,1,4,15,6,11,10,1,3,15,1,8,9,15,5,11,10,0,10,10,12,15,7,10,3,12,17,9,17,11,10,6,12,4,0,15,9,15,10,4,2,11,10,10,7,17,0,0,12,4,4,2,8,4,10,10,9,12,0,4,12,11,7,1,0,2,0,5,12,15,15,15,1,4,8,10,0,0,0,0,0,0,0,0,0,0,0,0,0,0,0,0,0,0,0,0,0,0,0,0,0,0,0,0,0,0,0,0,0,0,0,0,0,0,0,0,0,0,0,0,0,0,0,0,0,0,0,0,0,0,0,0,0,0,0,0,0,0,0,0,0,0,0,0,0,0,0,0,0,0,0,0,0,0,0,0,0,0,0,0,0,0,0,0,0,0,0,0,0,0,0,0,0,0,0,0,0,0,0,0,0,0,0,0,0,0,0,0,0,0,0,0,0,0,0,0,0,0,0,0,0,0,0,0,0,0,0,0,0,0,0,0,0,0,0,0,0,0,0,0,0,0,0,0,0,0,0,0,0,0,0,0,0,0,0,0,0,0,0,0,0,0,0,0,0,0,0,0,0,0,0,0,0,0,0,0,0,0,0,0,0,0,0,0,0,0,0,0,0,0,0,0,0,0,0,0,0,0,0,0,0,0,0,0,0,0,0,0,0,0,0,0,0,0,0,0,0,0,0,0,0,0,0,0,0,0],"split_type":[0,0,0,0,0,0,0,0,0,0,0,0,0,0,0,0,0,0,0,0,0,0,0,0,0,0,0,0,0,0,0,0,0,0,0,0,0,0,0,0,0,0,0,0,0,0,0,0,0,0,0,0,0,0,0,0,0,0,0,0,0,0,0,0,0,0,0,0,0,0,0,0,0,0,0,0,0,0,0,0,0,0,0,0,0,0,0,0,0,0,0,0,0,0,0,0,0,0,0,0,0,0,0,0,0,0,0,0,0,0,0,0,0,0,0,0,0,0,0,0,0,0,0,0,0,0,0,0,0,0,0,0,0,0,0,0,0,0,0,0,0,0,0,0,0,0,0,0,0,0,0,0,0,0,0,0,0,0,0,0,0,0,0,0,0,0,0,0,0,0,0,0,0,0,0,0,0,0,0,0,0,0,0,0,0,0,0,0,0,0,0,0,0,0,0,0,0,0,0,0,0,0,0,0,0,0,0,0,0,0,0,0,0,0,0,0,0,0,0,0,0,0,0,0,0,0,0,0,0,0,0,0,0,0,0,0,0,0,0,0,0,0,0,0,0,0,0,0,0,0,0,0,0,0,0,0,0,0,0,0,0,0,0,0,0,0,0,0,0,0,0,0,0,0,0,0,0,0,0,0,0,0,0,0,0,0,0,0,0,0,0,0,0,0,0,0,0,0,0,0,0,0,0,0,0,0,0,0,0,0,0,0,0,0,0,0,0,0,0,0,0,0,0,0,0,0,0,0,0,0,0,0,0,0,0,0,0,0,0,0,0,0,0,0,0,0,0,0,0,0,0,0,0,0,0,0,0,0,0,0,0,0,0,0,0,0,0,0,0,0,0,0,0,0,0,0,0,0,0,0,0,0,0,0,0,0,0,0,0,0,0,0,0,0,0,0,0,0,0,0,0,0,0,0,0,0,0,0,0,0,0,0,0,0,0,0,0,0,0,0,0,0,0,0,0,0,0,0,0,0,0,0,0,0,0,0,0,0,0,0,0,0,0,0,0,0,0,0,0,0,0,0,0,0,0,0,0,0,0,0,0,0,0,0,0,0,0,0,0,0,0,0,0,0,0,0,0,0,0,0,0],"sum_hessian":[1.3180502E5,4.7633684E4,8.417133E4,2.4796816E4,2.283687E4,5.1407594E4,3.2763734E4,7.762741E3,1.7034076E4,1.0901082E4,1.1935786E4,2.0753475E4,3.0654117E4,1.5991852E4,1.6771883E4,6.3563384E3,1.406403E3,1.2128211E4,4.9058647E3,8.153814E3,2.7472683E3,3.1122231E3,8.8235625E3,9.042427E3,1.1711049E4,1.1726105E4,1.8928012E4,3.4462195E3,1.2545632E4,3.0912258E3,1.3680656E4,2.7080828E3,3.6482554E3,1.8070003E2,1.225703E3,7.9960405E3,4.1321704E3,2.4402551E3,2.4656099E3,3.8123242E3,4.3414897E3,3.5625235E2,2.391016E3,1.0453402E3,2.066883E3,6.181269E3,2.6422935E3,3.6840627E3,5.358364E3,9.686054E3,2.0249952E3,5.918561E3,5.807544E3,7.2175166E3,1.1710496E4,9.637349E2,2.4824846E3,3.5368103E3,9.008821E3,2.2422983E3,8.489273E2,7.556717E3,6.1239395E3,2.68302E3,2.5062794E1,2.4791977E2,3.4003357E3,1.7746747E2,3.2325673E0,1.01195795E3,2.1374498E2,3.4246782E3,4.5713623E3,3.361074E3,7.710963E2,1.0559998E2,2.334655E3,5.5577924E2,1.9098307E3,1.3831259E3,2.4291982E3,4.2729688E3,6.852108E1,1.5152739E2,2.0472498E2,2.328573E3,6.244313E1,1.01634265E3,2.8997486E1,3.4940732E2,1.7174757E3,5.0190033E2,5.679369E3,1.8867874E3,7.5550616E2,8.296957E2,2.8543672E3,3.871234E1,5.319652E3,1.5347493E3,8.151304E3,2.5884293E2,1.7661523E3,1.6510516E3,4.2675093E3,3.17871E3,2.6288342E3,3.1622986E3,4.055218E3,1.0790256E4,9.2023975E2,9.552528E2,8.482112E0,1.9172389E3,5.652456E2,2.7402979E3,7.9651245E2,1.4510497E3,7.557772E3,6.0563086E2,1.6366676E3,3.0562576E2,5.433016E2,1.9187819E3,5.637935E3,2.524786E3,3.5991536E3,2.6767878E3,6.2323074E0,1.9063314E1,5.9994802E0,2.1975797E2,2.8161797E1,3.3952368E3,5.0988293E0,3.2325673E0,1.742349E2,4.9684308E2,5.1511487E2,2.0278024E2,1.0964745E1,7.797244E1,3.3467056E3,1.0288889E3,3.5424734E3,1.1000704E3,2.2610034E3,1.4421306E2,6.268833E2,3.932871E1,6.627127E1,6.0417944E2,1.7304757E3,4.3056454E2,1.2521471E2,7.664278E2,1.1434028E3,1.2995681E3,8.3557724E1,9.725238E2,1.4566746E3,4.0574026E3,2.1556601E2,5.478942E1,1.3731657E1,1.5248678E1,1.3627872E2,1.494969E2,5.522806E1,1.1340165E3,1.1945564E3,1.6162837E0,6.0826847E1,3.8736865E2,6.28974E2,6.348721E0,3.430586E2,1.1688638E3,5.48612E2,7.2787865E1,4.2911246E2,2.5802449E3,3.099124E3,1.7626926E3,1.24094734E2,3.651414E2,3.9036475E2,2.1524744E2,6.1444824E2,1.3895557E3,1.4648115E3,3.422988E1,4.482459E0,3.6824922E3,1.6371594E3,5.6460846E2,9.7014087E2,2.8980335E1,8.1223237E3,1.2911145E2,1.2973146E2,1.00299347E3,7.631588E2,5.3900885E2,1.1120428E3,2.5427835E2,4.0132312E3,2.995206E3,1.8350383E2,1.2837035E3,1.3451306E3,5.605818E2,2.6017168E3,1.8013514E3,2.2538667E3,1.3003762E3,9.48988E3,6.98668E2,2.2157172E2,8.383253E2,1.16927475E2,4.7495885E0,3.732524E0,7.9253E1,1.837986E3,2.8291202E2,2.823336E2,4.5483838E2,2.2854595E3,4.947185E2,3.0179398E2,1.312624E3,1.3842561E2,6.8633096E3,6.944626E2,3.366132E0,6.022647E2,1.2214636E1,1.624453E3,6.2494583E0,2.9937628E2,5.14407E2,2.889458E1,7.8585175E1,1.8401967E3,1.8658021E3,3.7721328E3,4.3788766E2,2.0868982E3,3.2326055E3,3.6654822E2,2.6751714E3,1.6162837E0,2.4997833E0,3.732524E0,1.5813596E1,3.2497184E0,5.1892586E1,1.6786539E2,1.2865309E1,1.5296488E1,2.0635972E3,1.3316398E3,4.6026672E1,4.508164E2,9.144062E1,4.2367426E2,1.7408418E2,2.8696054E1,2.9997401E0,7.9650044E0,5.2693974E1,2.5278471E1,2.776239E3,5.704666E2,1.0225402E3,6.348721E0,2.536053E3,1.00642053E3,4.9312042E2,6.0694995E2,4.632015E2,1.797802E3,1.0809977E2,3.6113293E1,3.8124033E2,2.4564294E2,2.6864096E1,1.2464615E1,1.41152E1,5.2156075E1,1.0403516E2,5.0014426E2,1.716162E3,1.4313725E1,1.5665067E2,2.7391388E2,3.560969E1,8.960501E1,8.831353E0,7.5759644E2,1.1271215E2,1.0306907E3,1.1879738E2,1.1807708E3,7.598613E0,7.5959114E1,4.1522388E2,5.572999E2,3.0243842E2,1.1542362E3,3.9508198E3,1.0658275E2,1.8273674E2,3.2829273E1,5.178968E1,2.9997401E0,9.999133E0,3.732524E0,1.21465034E2,1.4813683E1,9.30226E1,5.6474308E1,5.2861843E1,2.3662186E0,4.1033966E2,7.236768E2,2.0217374E2,9.923827E2,7.7321773E0,5.309467E1,6.9993935E0,3.8036926E2,2.5247812E1,6.037262E2,1.4998701E0,4.848851E0,3.277278E2,1.533079E1,2.0248245E1,1.1486155E3,1.992769E2,3.4933508E2,6.0922466E1,1.1865396E1,8.615313E1,3.4295935E2,2.5513674E3,2.887743E1,6.560465E2,2.4430776E3,1.646313E3,1.1637971E2,7.743454E1,4.6660194E1,3.4927634E2,1.5865048E1,2.714338E2,1.1893095E2,9.889838E1,1.1634905E2,3.2613598E1,5.8183466E2,3.759237E1,1.3519633E3,1.3473103E2,1.3300804E3,2.5247812E1,8.982069E0,1.6162837E0,2.8661754E0,7.773962E1,3.6047527E3,1.0399721E2,1.5331622E3,4.7325723E2,9.135122E1,6.054038E2,3.6473706E2,2.2248072E1,6.732264E0,5.565287E3,2.5570364E3,1.0626416E2,2.284729E1,7.9506615E1,5.022485E1,9.827146E2,2.0278904E1,4.0590393E2,3.5725485E2,5.213939E2,1.7614897E1,4.4211864E1,1.0678309E3,1.7092279E2,8.335555E1,1.7364438E3,2.2767874E3,2.9835908E3,1.16154175E1,6.689129E1,1.1661254E2,1.2422928E3,4.141065E1,2.24809E1,1.3226498E3,3.3925278E2,2.2132903E2,2.5921013E3,9.61559E0,7.898181E2,1.01153326E3,2.1780447E3,7.58219E1,3.9643283E2,9.0394336E2,8.582114E3,9.0776526E2,6.3569794E2,6.29701E1,2.0510744E2,1.6464268E1,4.1725586E1,7.9659973E2,5.6073616E1,6.0853863E1,6.838751E1,1.0865482E1,1.8182891E3,1.9696835E1,3.2497184E0,2.796623E2,2.6696228E1,2.5563737E2,3.6941803E2,8.542034E1,1.6165645E2,2.1238032E3,3.8100644E2,1.1371206E2,2.944282E2,7.365785E0,3.964365E1,1.2729803E3,1.3392601E2,4.49961E0,4.5892866E3,2.274023E3,6.84847E2,9.61559E0,1.7498484E0,1.6162837E0,5.4004456E2,6.2220165E1,7.7150264E0,4.49961E0,1.6232031E3,1.2498916E0,2.9512665E2,4.249632E0,6.2370884E1,4.520361E2,2.9997401E0,2.589484E1,2.1145252E1,5.743992E1,1.2177144E3,6.224823E2,1.5157598E3,3.5004236E2,3.3178513E1,3.7389543E3,4.792359E1,3.8996408E2,6.893882E2,1.3975101E3,3.3628732E2,2.896318E3,1.3861063E2,2.2793759E2],"tree_param":{"num_deleted":"0","num_feature":"19","num_nodes":"481","size_leaf_vector":"1"}},{"base_weights":[5.397801E-3,-7.904749E-1,4.4049E-1,-1.2308937E0,-5.275956E-1,2.1261124E-1,7.837752E-1,-1.3637784E0,-8.5544586E-1,-7.410028E-1,-3.8237622E-1,-2.201011E-2,3.381849E-1,6.39005E-1,9.7701645E-1,-1.5392334E0,-1.1918838E0,-9.843288E-1,-9.1185875E-2,-8.8837683E-1,-5.072129E-1,-5.537664E-1,-2.6631343E-1,-1.2303436E-1,5.795692E-2,5.556969E-2,3.7226933E-1,8.632084E-1,5.8618295E-1,8.93402E-1,1.1463565E0,-1.6885192E0,-1.4272377E0,-5.217399E-1,-1.2191597E0,-1.2726992E0,-9.014964E-1,-3.606111E-1,8.4566426E-1,-9.9676263E-1,-7.616684E-1,-8.008923E-1,-2.3255822E-1,-7.6220477E-1,-4.723256E-1,-3.5505328E-1,-5.745765E-2,-7.220671E-1,-1.07493006E-1,3.2470655E-2,4.4159755E-1,-6.416505E-2,2.534954E-1,2.4518967E-1,4.3243062E-1,1.0701115E0,7.894296E-1,4.763736E-1,6.5120226E-1,1.1068262E0,8.457977E-1,1.4066377E0,1.0875199E0,-1.6926911E0,3.2623374E-1,-1.5209503E0,-1.2524587E0,9.276387E-1,-6.660127E-1,-1.3520063E0,-1.0985935E0,-1.5258998E0,-1.0286051E0,-1.3989362E0,-8.1923866E-1,-1.2751878E0,-4.1163195E-2,-4.8256192E-1,1.0391825E0,-4.1395354E-1,-1.0210929E0,-1.0425421E0,-6.306988E-1,-5.9937006E-1,-9.3338346E-1,-3.613817E-1,1.1887994E-1,-1.1064897E0,-6.4241564E-1,6.029914E-1,-4.8322612E-1,-6.2840813E-1,-3.08468E-1,-8.858876E-1,3.8435939E-3,2.970518E-1,-1.0193014E0,-2.2638622E-1,-5.5893134E-2,2.2936162E-1,-6.137285E-3,4.719455E-1,-1.8011577E-1,-3.4106785E-1,4.3293517E-3,8.539128E-1,1.7278573E-1,1.9523375E-1,4.489784E-1,4.5197353E-1,1.6772152E-1,1.1660339E0,8.5599357E-1,8.2193124E-1,3.311528E-2,6.351001E-1,4.0435866E-1,4.7348744E-1,6.9551504E-1,1.608149E0,1.0789745E0,7.0195717E-1,8.7208813E-1,1.422465E0,1.5483445E-1,1.1056461E0,6.273471E-1,-1.723305E0,-1.4042923E0,-1.2430151E-1,1.1694982E-1,-8.864781E-1,-1.5447236E0,-1.3381354E0,-4.8336974E-1,-7.8085077E-1,1.6358393E0,-1.350249E0,-4.112083E-1,-1.4385753E0,-1.206232E0,7.74402E-1,-1.1069574E0,-1.5910445E0,3.1563482E-1,3.773498E-1,-1.0939704E0,-1.547602E0,1.6867587E-1,-7.3249364E-1,-1.0835214E0,-1.7857925E0,-7.7252215E-1,-1.0016592E0,1.2623736E-1,-1.7004673E-1,5.153192E-1,-8.6006045E-1,1.1529173E0,8.493465E-1,-8.3716303E-1,-1.1356835E0,-8.6545396E-1,-4.925387E-1,-1.2017041E0,-5.066575E-1,-8.1318593E-1,-6.4381903E-1,6.6308266E-1,-1.2881731E0,-7.963489E-1,-6.3590986E-1,-1.6614878E-1,-2.1798383E-1,3.0110142E-1,-6.659625E-1,-1.373591E0,-3.4473705E-1,-7.7249295E-1,1.0583897E0,-1.1801237E0,-4.9073163E-1,8.5848796E-1,-6.540238E-1,1.2508156E0,-3.1569976E-2,-3.4630725E-1,1.4435071E-1,-1.1196308E0,8.849513E-2,-2.0053408E-1,8.9477456E-1,-1.3082184E0,-1.282236E0,3.9206E-1,-1.01079054E-1,-4.3725368E-1,5.305292E-3,-2.3671539E-1,6.260999E-1,8.8172026E-2,-1.6765203E-1,7.0553295E-2,-1.4673644E-1,5.500501E-1,1.0533781E0,-4.1161302E-1,-1.3964379E0,2.3061842E-2,1.2363082E0,4.3664894E-1,2.8347779E-2,3.902564E-1,1.6912688E-1,5.0169843E-1,-4.527478E-1,4.8601854E-1,4.1556433E-1,5.6100637E-1,4.746144E-1,6.626234E-2,1.1793841E0,-1.5224408E-1,1.4159614E0,7.5741524E-1,9.091091E-1,6.569017E-1,5.2212465E-1,-4.199336E-1,7.1003795E-1,2.4864908E-2,3.7524518E-1,1.0993229E0,6.2814873E-1,2.831651E-1,6.406837E-1,7.995967E-1,1.6939043E0,5.1102066E-1,5.3206563E-1,1.0989856E0,7.460996E-1,-2.4086516E-2,9.771085E-1,7.7759427E-1,1.4267427E0,8.791764E-2,-1.510841E-1,7.400204E-1,1.2585386E0,1.0515864E0,-1.6608307E-1,6.9662243E-1,-1.7391227E-1,-9.850618E-2,-1.5497063E-1,3.0652255E-2,-1.2324747E-1,8.79169E-3,-1.4058517E-1,-1.6365258E-1,-1.578391E-1,-1.1692263E-1,-1.8089932E-1,-1.5829818E-2,6.0651302E-2,-1.5215866E-1,1.8262915E-1,4.227304E-2,-1.4392303E-1,1.0187804E-1,-2.8608952E-2,-1.441872E-1,-1.4601795E-1,-7.492061E-2,-3.7661042E-2,-1.2635265E-1,-1.4797397E-1,1.5751325E-1,-1.6385658E-1,-1.0807277E-1,-1.7337355E-1,-1.18013225E-1,1.3107944E-1,-1.5726702E-1,-1.4830382E-1,8.461409E-2,1.08991146E-1,-1.13952994E-1,-1.6865493E-1,-4.5306765E-2,1.3367492E-1,-1.3882445E-1,-9.499854E-2,-5.684889E-2,-1.214123E-1,-7.356378E-2,-1.8835889E-1,9.919359E-2,5.793027E-2,-1.2578674E-1,-1.5695043E-1,3.641249E-2,3.3034608E-2,-1.08379655E-1,1.2826556E-1,-1.4046673E-1,-1.6188712E-1,1.2806892E-1,-4.853768E-3,1.2234428E-1,-4.2594414E-2,1.4810573E-1,-1.3237958E-1,-2.3365E-2,-1.2597881E-1,-9.407343E-2,-6.958511E-2,-1.10814475E-1,-3.3040967E-2,-1.6357881E-1,-5.4350197E-2,-1.3286407E-1,-8.8606864E-2,-3.073386E-2,3.2534216E-2,-8.762877E-2,-8.1553884E-2,-3.704797E-2,9.2363514E-2,-1.4343987E-1,1.0560502E-2,-1.3647808E-1,-4.5636434E-2,-9.467511E-2,-1.0499054E-1,-3.8965654E-2,-6.307893E-2,-4.240257E-3,-4.29387E-2,2.8551443E-2,9.498794E-2,1.3305291E-2,-3.272737E-3,-9.580177E-2,1.0177523E-1,-1.4429665E-1,-2.5507981E-2,-1.850287E-1,-9.905966E-2,-6.242915E-2,-1.4960255E-1,1.316409E-1,7.461985E-2,-1.7314124E-1,-4.0399253E-2,-6.076463E-2,1.13205634E-1,-1.3923971E-1,-5.531162E-2,-9.560057E-2,-1.2516706E-1,1.6900668E-1,-1.015791E-2,4.4383973E-2,-5.1019967E-2,-2.8400688E-2,-1.680498E-1,5.126521E-2,-7.811598E-2,-1.8289448E-1,-7.3389634E-2,1.2902639E-2,-3.380874E-2,1.205022E-2,1.1944182E-1,-1.4858426E-1,-1.7626743E-1,6.7566805E-2,-1.6169296E-1,-4.631884E-2,1.627935E-1,-5.667324E-2,-2.5599768E-2,2.5854453E-2,-1.35462E-1,-3.6379218E-2,-1.3762991E-2,8.78141E-3,-7.2954693E-3,-5.6787707E-2,7.3509715E-2,-1.6801942E-2,6.6653475E-2,3.8764924E-3,-7.165657E-2,-1.0534605E-2,-1.1768031E-2,1.9319814E-2,-5.065651E-2,1.2780377E-1,-2.6133193E-2,6.0907662E-2,-1.3990104E-1,1.4096789E-1,-6.493412E-2,1.0046964E-2,-1.9056256E-1,2.8609142E-3,9.652979E-3,-3.0935029E-2,-1.3183168E-1,1.3074517E-1,-1.03222586E-1,7.584058E-2,8.940912E-3,-7.1071096E-2,-1.7030922E-1,4.149063E-2,1.1467554E-2,2.8671805E-2,6.365527E-2,1.3550122E-2,2.8697785E-3,-1.429357E-1,2.0967513E-2,5.8622997E-2,4.3709245E-2,1.8859228E-2,6.053722E-2,3.841706E-2,8.603143E-3,9.664117E-2,8.302822E-2,1.560926E-6,-5.7813856E-3,1.2029916E-1,1.5048216E-1,9.097162E-3,1.01967454E-1,5.7011943E-2,4.2186942E-2,9.3989424E-2,5.088833E-2,1.0163682E-1,-9.0930246E-2,7.272472E-2,1.4870065E-1,-5.555913E-2,5.311637E-2,9.044167E-2,-9.1867134E-2,2.635026E-2,4.3008287E-2,1.4949523E-2,-1.3286084E-1,1.134159E-1,-6.45023E-3,7.135251E-2,-1.1625224E-1,3.1012623E-2,6.7447945E-2,4.439632E-2,-5.4284442E-2,8.1023924E-2,1.1466255E-1,1.7636056E-1,-1.4865096E-1,1.5349162E-1,-7.5029224E-2,1.1300049E-1,1.1512011E-1,8.993827E-2,8.84904E-2,5.887392E-2,6.706666E-2,-6.773602E-2,-6.552517E-2,9.8427825E-2,6.7092314E-2,8.8699006E-2,1.211877E-1,1.454588E-1,1.1412758E-1,-1.1733951E-1,-1.8021688E-2,1.2561156E-1,1.3889806E-1,1.0965576E-1,8.610689E-2,1.107322E-1,-1.5610157E-1,7.5017236E-2],"categories":[],"categories_nodes":[],"categories_segments":[],"categories_sizes":[],"default_left":[0,0,0,0,0,0,0,0,0,0,0,0,0,0,0,0,0,0,0,0,0,0,0,0,0,0,0,0,0,0,0,0,0,0,0,0,0,0,0,0,0,0,0,0,0,0,0,0,0,0,0,0,0,0,0,0,0,0,0,0,0,0,0,0,0,0,0,0,0,0,0,0,0,0,0,0,0,0,0,0,0,0,0,0,0,0,0,0,0,0,0,0,0,0,0,0,0,0,0,0,0,0,0,0,0,0,0,0,0,0,0,0,0,0,0,0,0,0,0,0,0,0,0,0,0,0,0,0,0,0,0,0,0,0,0,0,0,0,0,0,0,0,0,0,0,0,0,0,0,0,0,0,0,0,0,0,0,0,0,0,0,0,0,0,0,0,0,0,0,0,0,0,0,0,0,0,0,0,0,0,0,0,0,0,0,0,0,0,0,0,0,0,0,0,0,0,0,0,0,0,0,0,0,0,0,0,0,0,0,0,0,0,0,0,0,0,0,0,0,0,0,0,0,0,0,0,0,0,0,0,0,0,0,0,0,0,0,0,0,0,0,0,0,0,0,0,0,0,0,0,0,0,0,0,0,0,0,0,0,0,0,0,0,0,0,0,0,0,0,0,0,0,0,0,0,0,0,0,0,0,0,0,0,0,0,0,0,0,0,0,0,0,0,0,0,0,0,0,0,0,0,0,0,0,0,0,0,0,0,0,0,0,0,0,0,0,0,0,0,0,0,0,0,0,0,0,0,0,0,0,0,0,0,0,0,0,0,0,0,0,0,0,0,0,0,0,0,0,0,0,0,0,0,0,0,0,0,0,0,0,0,0,0,0,0,0,0,0,0,0,0,0,0,0,0,0,0,0,0,0,0,0,0,0,0,0,0,0,0,0,0,0,0,0,0,0,0,0,0,0,0,0,0,0,0,0,0,0,0,0,0,0,0,0,0,0,0,0,0,0,0,0,0,0,0,0,0,0,0,0,0,0,0,0,0,0,0,0,0,0,0,0,0,0,0,0,0,0,0,0,0,0,0,0,0,0,0,0,0,0,0,0,0,0,0,0,0,0,0,0,0,0,0,0,0,0,0,0,0,0,0,0,0,0,0,0,0,0,0,0,0,0,0],"id":1,"left_children":[1,3,5,7,9,11,13,15,17,19,21,23,25,27,29,31,33,35,37,39,41,43,45,47,49,51,53,55,57,59,61,63,65,67,69,71,73,75,77,79,81,83,85,87,89,91,93,95,97,99,101,103,105,107,109,111,113,115,117,119,121,123,125,127,129,131,133,135,137,139,141,143,145,147,149,151,153,155,157,159,161,163,165,167,169,171,173,175,177,179,181,183,185,187,189,191,193,195,197,199,201,203,-1,205,207,209,211,213,215,217,219,221,223,225,227,229,231,233,235,237,239,241,243,245,247,249,251,253,255,-1,-1,257,259,261,263,265,267,269,271,273,275,277,279,281,283,285,287,289,291,293,295,297,299,301,303,-1,305,307,309,311,313,315,317,319,321,323,325,327,329,331,333,335,337,339,341,343,345,347,349,351,353,355,357,359,361,363,365,367,369,371,373,375,377,379,381,383,385,387,389,391,393,395,397,399,401,403,405,407,409,411,413,415,417,419,421,423,425,427,429,431,433,435,-1,437,439,441,443,445,447,449,451,453,455,457,459,461,463,465,467,469,471,473,475,477,479,481,483,-1,485,487,489,-1,491,-1,-1,-1,-1,-1,-1,-1,-1,-1,-1,-1,-1,-1,-1,-1,-1,-1,-1,-1,-1,-1,-1,-1,-1,-1,-1,-1,-1,-1,-1,-1,-1,-1,-1,-1,-1,-1,-1,-1,-1,-1,-1,-1,-1,-1,-1,-1,-1,-1,-1,-1,-1,-1,-1,-1,-1,-1,-1,-1,-1,-1,-1,-1,-1,-1,-1,-1,-1,-1,-1,-1,-1,-1,-1,-1,-1,-1,-1,-1,-1,-1,-1,-1,-1,-1,-1,-1,-1,-1,-1,-1,-1,-1,-1,-1,-1,-1,-1,-1,-1,-1,-1,-1,-1,-1,-1,-1,-1,-1,-1,-1,-1,-1,-1,-1,-1,-1,-1,-1,-1,-1,-1,-1,-1,-1,-1,-1,-1,-1,-1,-1,-1,-1,-1,-1,-1,-1,-1,-1,-1,-1,-1,-1,-1,-1,-1,-1,-1,-1,-1,-1,-1,-1,-1,-1,-1,-1,-1,-1,-1,-1,-1,-1,-1,-1,-1,-1,-1,-1,-1,-1,-1,-1,-1,-1,-1,-1,-1,-1,-1,-1,-1,-1,-1,-1,-1,-1,-1,-1,-1,-1,-1,-1,-1,-1,-1,-1,-1,-1,-1,-1,-1,-1,-1,-1,-1,-1,-1,-1,-1,-1,-1,-1,-1,-1,-1,-1,-1,-1,-1,-1,-1,-1,-1,-1,-1,-1,-1,-1,-1,-1,-1,-1,-1,-1,-1,-1,-1,-1,-1],"loss_changes":[4.5639082E4,5.39284E3,6.6658887E3,8.675332E2,9.03853E2,1.5089819E3,9.5047656E2,3.8597656E2,4.4851685E2,4.0654492E2,3.452329E2,1.4426385E2,3.21344E2,2.2971094E2,2.0512402E2,1.0392383E2,1.1816992E2,9.19397E1,1.6646992E2,9.8725586E1,3.6839575E2,1.1862915E2,1.9188342E2,7.337544E1,9.744599E1,8.513391E1,2.275E2,5.570459E1,1.1203906E2,9.813574E1,7.211621E1,2.3419922E1,5.7719727E1,5.413746E1,9.853516E1,5.202661E1,1.2287207E2,1.4952628E2,3.837178E1,5.489331E1,1.2235254E2,5.839099E1,1.0700914E2,8.043909E1,5.9401E1,9.234039E1,1.5686024E2,6.06876E1,4.7173958E1,7.105994E1,4.310721E1,4.2460842E1,6.546665E1,9.731708E1,1.0444385E2,1.8943604E1,6.719226E1,6.668054E1,7.748242E1,2.3050293E1,2.95542E1,1.7279175E1,3.2061035E1,2.1553223E1,1.0002604E1,3.4303223E1,8.344849E1,2.9818396E1,4.0129646E1,3.5702637E1,5.2225098E1,5.1317993E1,4.1271973E1,1.0016095E2,5.8885742E1,3.2628387E1,6.1302254E1,2.447698E1,2.8838562E1,8.5189705E1,6.579077E1,9.236389E1,5.1267456E1,4.9728333E1,6.3651367E1,9.257213E1,3.901397E1,5.8685364E1,5.6349976E1,4.2704063E1,5.0699585E1,5.1703644E1,6.505957E1,5.1409317E1,4.9790764E1,4.510307E1,5.7858475E1,6.1456413E1,5.9370705E1,8.578993E1,9.6830475E1,2.9719345E1,0E0,4.4106155E1,4.7151638E1,2.5019684E1,3.7519245E1,6.1408966E1,6.3108765E1,7.44563E1,4.326971E1,2.5763489E1,1.5717072E1,3.712317E1,2.541207E1,8.347998E1,8.114673E1,5.7962646E1,4.4611084E1,7.7326813E0,1.7853394E1,3.9689636E1,6.6129395E1,4.8535156E0,1.2961138E1,2.9891602E1,2.5112633E1,2.6898438E1,6.6640686E1,0E0,0E0,2.9696434E1,2.6744629E1,4.4731934E1,5.5513065E1,8.722279E0,3.1554375E0,1.47217865E1,2.1700022E1,2.6550049E1,5.235913E1,2.9704441E1,4.3753418E1,2.1951294E1,3.0825617E1,1.9129694E1,4.3538544E1,5.8795837E1,7.102225E1,6.9479614E1,2.8239868E1,1.9517242E1,4.569238E1,4.4453518E1,8.059995E1,0E0,1.8657759E1,1.4835651E1,1.040181E1,3.2974007E1,3.459948E1,5.090918E1,6.4751465E1,4.3947437E1,6.802722E1,1.0271564E2,6.654071E1,3.955789E1,1.79244E1,3.9547607E1,4.8772766E1,7.2818665E1,5.8153557E1,2.3892908E1,4.4812687E1,3.568653E1,5.3625977E1,5.9789387E1,3.224524E1,2.9119015E1,1.2823337E1,5.011145E1,1.89027E1,3.1269897E1,1.8118624E1,2.4932446E1,5.5642395E1,2.7906866E1,4.0242905E1,6.79266E1,3.726292E1,2.5997814E1,1.2757566E1,3.5030502E1,3.0591192E1,8.147604E1,5.7953476E1,4.7296257E1,7.353106E1,3.4926117E1,3.230564E1,8.600016E1,1.22391235E2,3.6299957E1,2.6252045E1,2.0897718E1,5.1595848E1,1.726146E1,4.332957E1,1.6815804E1,3.7716957E1,3.2512363E1,2.5308464E1,4.5326508E1,2.9683777E1,3.521524E1,4.9975616E1,6.885498E1,3.669629E1,6.591684E1,5.2957214E1,1.949347E1,0E0,5.0882263E0,1.2227982E1,2.5297607E1,4.7894867E1,1.6849167E1,1.6239414E1,5.606006E1,4.5440407E1,4.7850647E1,1.5171555E1,6.443692E1,3.4946114E1,3.416284E1,3.935913E1,1.1947021E0,1.8761246E1,4.7931873E1,1.5893921E1,2.4967224E1,3.3093334E1,3.7961426E1,4.0864502E1,3.4378662E0,6.4572515E0,0E0,4.815395E0,1.9214111E1,2.873877E1,0E0,1.8989922E1,0E0,0E0,0E0,0E0,0E0,0E0,0E0,0E0,0E0,0E0,0E0,0E0,0E0,0E0,0E0,0E0,0E0,0E0,0E0,0E0,0E0,0E0,0E0,0E0,0E0,0E0,0E0,0E0,0E0,0E0,0E0,0E0,0E0,0E0,0E0,0E0,0E0,0E0,0E0,0E0,0E0,0E0,0E0,0E0,0E0,0E0,0E0,0E0,0E0,0E0,0E0,0E0,0E0,0E0,0E0,0E0,0E0,0E0,0E0,0E0,0E0,0E0,0E0,0E0,0E0,0E0,0E0,0E0,0E0,0E0,0E0,0E0,0E0,0E0,0E0,0E0,0E0,0E0,0E0,0E0,0E0,0E0,0E0,0E0,0E0,0E0,0E0,0E0,0E0,0E0,0E0,0E0,0E0,0E0,0E0,0E0,0E0,0E0,0E0,0E0,0E0,0E0,0E0,0E0,0E0,0E0,0E0,0E0,0E0,0E0,0E0,0E0,0E0,0E0,0E0,0E0,0E0,0E0,0E0,0E0,0E0,0E0,0E0,0E0,0E0,0E0,0E0,0E0,0E0,0E0,0E0,0E0,0E0,0E0,0E0,0E0,0E0,0E0,0E0,0E0,0E0,0E0,0E0,0E0,0E0,0E0,0E0,0E0,0E0,0E0,0E0,0E0,0E0,0E0,0E0,0E0,0E0,0E0,0E0,0E0,0E0,0E0,0E0,0E0,0E0,0E0,0E0,0E0,0E0,0E0,0E0,0E0,0E0,0E0,0E0,0E0,0E0,0E0,0E0,0E0,0E0,0E0,0E0,0E0,0E0,0E0,0E0,0E0,0E0,0E0,0E0,0E0,0E0,0E0,0E0,0E0,0E0,0E0,0E0,0E0,0E0,0E0,0E0,0E0,0E0,0E0,0E0,0E0,0E0,0E0,0E0,0E0,0E0,0E0,0E0,0E0,0E0,0E0,0E0,0E0,0E0,0E0,0E0,0E0,0E0,0E0,0E0,0E0,0E0,0E0,0E0,0E0,0E0,0E0,0E0,0E0,0E0,0E0,0E0,0E0],"parents":[2147483647,0,0,1,1,2,2,3,3,4,4,5,5,6,6,7,7,8,8,9,9,10,10,11,11,12,12,13,13,14,14,15,15,16,16,17,17,18,18,19,19,20,20,21,21,22,22,23,23,24,24,25,25,26,26,27,27,28,28,29,29,30,30,31,31,32,32,33,33,34,34,35,35,36,36,37,37,38,38,39,39,40,40,41,41,42,42,43,43,44,44,45,45,46,46,47,47,48,48,49,49,50,50,51,51,52,52,53,53,54,54,55,55,56,56,57,57,58,58,59,59,60,60,61,61,62,62,63,63,64,64,65,65,66,66,67,67,68,68,69,69,70,70,71,71,72,72,73,73,74,74,75,75,76,76,77,77,78,78,79,79,80,80,81,81,82,82,83,83,84,84,85,85,86,86,87,87,88,88,89,89,90,90,91,91,92,92,93,93,94,94,95,95,96,96,97,97,98,98,99,99,100,100,101,101,103,103,104,104,105,105,106,106,107,107,108,108,109,109,110,110,111,111,112,112,113,113,114,114,115,115,116,116,117,117,118,118,119,119,120,120,121,121,122,122,123,123,124,124,125,125,126,126,127,127,128,128,131,131,132,132,133,133,134,134,135,135,136,136,137,137,138,138,139,139,140,140,141,141,142,142,143,143,144,144,145,145,146,146,147,147,148,148,149,149,150,150,151,151,152,152,153,153,154,154,156,156,157,157,158,158,159,159,160,160,161,161,162,162,163,163,164,164,165,165,166,166,167,167,168,168,169,169,170,170,171,171,172,172,173,173,174,174,175,175,176,176,177,177,178,178,179,179,180,180,181,181,182,182,183,183,184,184,185,185,186,186,187,187,188,188,189,189,190,190,191,191,192,192,193,193,194,194,195,195,196,196,197,197,198,198,199,199,200,200,201,201,202,202,203,203,204,204,205,205,206,206,207,207,208,208,209,209,210,210,211,211,212,212,213,213,214,214,215,215,216,216,217,217,218,218,219,219,220,220,221,221,223,223,224,224,225,225,226,226,227,227,228,228,229,229,230,230,231,231,232,232,233,233,234,234,235,235,236,236,237,237,238,238,239,239,240,240,241,241,242,242,243,243,244,244,245,245,246,246,248,248,249,249,250,250,252,252],"right_children":[2,4,6,8,10,12,14,16,18,20,22,24,26,28,30,32,34,36,38,40,42,44,46,48,50,52,54,56,58,60,62,64,66,68,70,72,74,76,78,80,82,84,86,88,90,92,94,96,98,100,102,104,106,108,110,112,114,116,118,120,122,124,126,128,130,132,134,136,138,140,142,144,146,148,150,152,154,156,158,160,162,164,166,168,170,172,174,176,178,180,182,184,186,188,190,192,194,196,198,200,202,204,-1,206,208,210,212,214,216,218,220,222,224,226,228,230,232,234,236,238,240,242,244,246,248,250,252,254,256,-1,-1,258,260,262,264,266,268,270,272,274,276,278,280,282,284,286,288,290,292,294,296,298,300,302,304,-1,306,308,310,312,314,316,318,320,322,324,326,328,330,332,334,336,338,340,342,344,346,348,350,352,354,356,358,360,362,364,366,368,370,372,374,376,378,380,382,384,386,388,390,392,394,396,398,400,402,404,406,408,410,412,414,416,418,420,422,424,426,428,430,432,434,436,-1,438,440,442,444,446,448,450,452,454,456,458,460,462,464,466,468,470,472,474,476,478,480,482,484,-1,486,488,490,-1,492,-1,-1,-1,-1,-1,-1,-1,-1,-1,-1,-1,-1,-1,-1,-1,-1,-1,-1,-1,-1,-1,-1,-1,-1,-1,-1,-1,-1,-1,-1,-1,-1,-1,-1,-1,-1,-1,-1,-1,-1,-1,-1,-1,-1,-1,-1,-1,-1,-1,-1,-1,-1,-1,-1,-1,-1,-1,-1,-1,-1,-1,-1,-1,-1,-1,-1,-1,-1,-1,-1,-1,-1,-1,-1,-1,-1,-1,-1,-1,-1,-1,-1,-1,-1,-1,-1,-1,-1,-1,-1,-1,-1,-1,-1,-1,-1,-1,-1,-1,-1,-1,-1,-1,-1,-1,-1,-1,-1,-1,-1,-1,-1,-1,-1,-1,-1,-1,-1,-1,-1,-1,-1,-1,-1,-1,-1,-1,-1,-1,-1,-1,-1,-1,-1,-1,-1,-1,-1,-1,-1,-1,-1,-1,-1,-1,-1,-1,-1,-1,-1,-1,-1,-1,-1,-1,-1,-1,-1,-1,-1,-1,-1,-1,-1,-1,-1,-1,-1,-1,-1,-1,-1,-1,-1,-1,-1,-1,-1,-1,-1,-1,-1,-1,-1,-1,-1,-1,-1,-1,-1,-1,-1,-1,-1,-1,-1,-1,-1,-1,-1,-1,-1,-1,-1,-1,-1,-1,-1,-1,-1,-1,-1,-1,-1,-1,-1,-1,-1,-1,-1,-1,-1,-1,-1,-1,-1,-1,-1,-1,-1,-1,-1,-1,-1,-1,-1,-1,-1,-1,-1],"split_conditions":[-2.55469E-1,-6.9380623E-1,6.4480144E-1,8.259362E-2,-5.031733E-1,-3.724896E-4,1.4869723E0,-8.8000774E-1,3.0039507E-1,9.415201E-2,-3.2637644E-1,-3.06611E-1,-7.356799E-1,-1.0668072E0,2.8291538E0,-1.0048946E0,-5.202205E-1,-2.0630099E-1,1.4787986E0,-5.6221735E-1,5.235261E-2,-1.8677664E-1,2.9936126E-1,-1.1830208E0,1.7518452E0,3.6696562E-1,1.6939987E-1,-9.880796E-1,8.6877537E-1,-1.1536862E0,-4.0103936E0,4.349344E-1,1.2513077E-3,-2.094196E0,-9.526337E-2,1.1427297E-1,-9.736359E-1,1.3441816E-1,8.0785215E-2,-5.7214755E-1,-2.0392929E-1,5.0693595E-1,1.2015786E0,-4.45664E-1,-7.814847E-1,-4.6583447E-1,-6.854842E-1,-9.847829E-1,-1.7963304E-1,-1.3812708E0,1.7569417E0,-7.6134455E-1,-1.7648116E-1,9.8467016E-1,1.3933837E0,-1.3646334E0,2.2527854E0,-3.0790427E-1,-6.5385264E-1,-3.5728881E0,-1.9925938E0,1.140061E0,1.453493E0,1.1088523E-1,1.1847931E0,-3.0107427E-1,2.9196286E-1,-1.6269637E-2,-1.5685786E0,-7.599964E-1,-4.8891288E-1,7.2408575E-1,-9.476104E-1,1.920019E-1,2.547504E-1,8.498948E-1,3.458069E-1,5.9009796E-1,1.0690693E-1,-4.735369E-1,-4.554932E-2,-6.139779E-1,-5.1985896E-1,1.5317936E0,1.533093E-1,2.7479398E-1,2.5070274E-1,-8.7193E-2,-5.594274E-1,4.1818455E-1,4.6332946E-1,2.2150645E0,-1.484639E0,-3.799061E-1,-3.0972663E-1,-1.1355592E0,4.5403624E-1,2.5818226E-1,-1.6686628E-2,-4.735369E-1,-2.0630099E-1,-4.0120915E-1,-1.8011577E-1,-4.7536346E-1,-1.5508482E0,-3.8030803E-1,4.5378357E-2,1.3043736E0,-1.1527984E0,3.801941E-1,-1.8524738E-2,1.9923644E0,3.2331756E-1,-6.074479E-1,-2.9646502E0,1.1941913E0,2.8319626E0,-1.1932157E-1,1.1666579E0,-6.2969923E-1,7.5652194E-1,3.0234177E0,7.16556E-2,3.61318E0,1.1616408E0,-3.0655305E0,6.4702994E-1,3.0973145E-1,-7.527391E-1,-1.2430151E-1,1.1694982E-1,1.4264442E0,-8.0624497E-1,-4.7995734E-1,-4.1262947E-2,-8.214399E-1,1.1610625E-1,-2.3297632E-1,4.7777852E-1,1.5647405E0,-6.854842E-1,-6.724261E-1,-8.379822E-1,-2.7114832E-1,-7.2648966E-1,-6.5228194E-1,-9.9529755E-1,2.7882817E-1,2.2007173E-1,1.4824964E-1,4.268617E-1,1.3657345E0,6.896355E-1,4.5869967E-1,7.3851764E-1,-1.7004673E-1,-1.7017917E-3,2.238371E0,5.619334E-2,-8.8385856E-1,1.6090405E-1,6.076436E-2,-6.352437E-1,9.222006E-1,-1.2172985E0,-1.526466E-1,-3.363571E-1,-5.6654084E-1,1.5094355E0,1.0260927E-1,9.53879E-1,-3.4785442E-2,1.1610625E-1,4.677804E-1,-6.6069883E-1,-4.532106E-1,-2.3330405E0,1.13743484E-1,-3.7830386E-1,-4.509914E-1,5.723573E-2,-3.8206065E-1,1.3824782E0,6.59377E-1,-2.523722E-1,-2.8151527E-1,-2.3580742E-1,4.06147E-1,-3.460038E-1,-2.5244268E-2,1.2536564E0,1.13743484E-1,5.4107285E-1,-5.18489E-1,-2.2693905E-1,-2.7300647E-2,3.3591202E-1,-1.526466E-1,3.1831115E-1,-5.1383865E-1,-2.4011083E0,-3.7874672E-1,-8.7193E-2,1.5140525E0,-8.211244E-1,-1.1945349E0,4.8541316E-1,5.3222257E-1,1.0910873E0,-4.8873848E-1,1.493599E-1,1.2248017E0,-2.373329E0,2.622564E-1,-6.147981E-1,9.3714774E-1,8.769191E-1,8.638256E-1,6.4100343E-1,2.0561996E0,-8.4617907E-1,1.3161078E-1,-1.5224408E-1,7.0017135E-1,-1.6730564E0,-2.3339856E0,7.550524E-1,1.0653526E0,-4.007894E0,-3.2084328E-1,4.2821467E-1,1.2713901E0,1.101083E0,6.6980183E-1,-2.056659E0,1.3841995E0,-3.5728881E0,9.2713153E-1,-7.6608086E-1,7.279896E-1,-5.929802E-1,-3.3530572E-1,-4.287697E-1,-2.2008803E0,1.5227761E0,-1.6205443E-1,-2.0260615E0,-1.510841E-1,1.2963033E0,1.1015239E0,-1.6134129E0,-1.6608307E-1,1.2894781E0,-1.7391227E-1,-9.850618E-2,-1.5497063E-1,3.0652255E-2,-1.2324747E-1,8.79169E-3,-1.4058517E-1,-1.6365258E-1,-1.578391E-1,-1.1692263E-1,-1.8089932E-1,-1.5829818E-2,6.0651302E-2,-1.5215866E-1,1.8262915E-1,4.227304E-2,-1.4392303E-1,1.0187804E-1,-2.8608952E-2,-1.441872E-1,-1.4601795E-1,-7.492061E-2,-3.7661042E-2,-1.2635265E-1,-1.4797397E-1,1.5751325E-1,-1.6385658E-1,-1.0807277E-1,-1.7337355E-1,-1.18013225E-1,1.3107944E-1,-1.5726702E-1,-1.4830382E-1,8.461409E-2,1.08991146E-1,-1.13952994E-1,-1.6865493E-1,-4.5306765E-2,1.3367492E-1,-1.3882445E-1,-9.499854E-2,-5.684889E-2,-1.214123E-1,-7.356378E-2,-1.8835889E-1,9.919359E-2,5.793027E-2,-1.2578674E-1,-1.5695043E-1,3.641249E-2,3.3034608E-2,-1.08379655E-1,1.2826556E-1,-1.4046673E-1,-1.6188712E-1,1.2806892E-1,-4.853768E-3,1.2234428E-1,-4.2594414E-2,1.4810573E-1,-1.3237958E-1,-2.3365E-2,-1.2597881E-1,-9.407343E-2,-6.958511E-2,-1.10814475E-1,-3.3040967E-2,-1.6357881E-1,-5.4350197E-2,-1.3286407E-1,-8.8606864E-2,-3.073386E-2,3.2534216E-2,-8.762877E-2,-8.1553884E-2,-3.704797E-2,9.2363514E-2,-1.4343987E-1,1.0560502E-2,-1.3647808E-1,-4.5636434E-2,-9.467511E-2,-1.0499054E-1,-3.8965654E-2,-6.307893E-2,-4.240257E-3,-4.29387E-2,2.8551443E-2,9.498794E-2,1.3305291E-2,-3.272737E-3,-9.580177E-2,1.0177523E-1,-1.4429665E-1,-2.5507981E-2,-1.850287E-1,-9.905966E-2,-6.242915E-2,-1.4960255E-1,1.316409E-1,7.461985E-2,-1.7314124E-1,-4.0399253E-2,-6.076463E-2,1.13205634E-1,-1.3923971E-1,-5.531162E-2,-9.560057E-2,-1.2516706E-1,1.6900668E-1,-1.015791E-2,4.4383973E-2,-5.1019967E-2,-2.8400688E-2,-1.680498E-1,5.126521E-2,-7.811598E-2,-1.8289448E-1,-7.3389634E-2,1.2902639E-2,-3.380874E-2,1.205022E-2,1.1944182E-1,-1.4858426E-1,-1.7626743E-1,6.7566805E-2,-1.6169296E-1,-4.631884E-2,1.627935E-1,-5.667324E-2,-2.5599768E-2,2.5854453E-2,-1.35462E-1,-3.6379218E-2,-1.3762991E-2,8.78141E-3,-7.2954693E-3,-5.6787707E-2,7.3509715E-2,-1.6801942E-2,6.6653475E-2,3.8764924E-3,-7.165657E-2,-1.0534605E-2,-1.1768031E-2,1.9319814E-2,-5.065651E-2,1.2780377E-1,-2.6133193E-2,6.0907662E-2,-1.3990104E-1,1.4096789E-1,-6.493412E-2,1.0046964E-2,-1.9056256E-1,2.8609142E-3,9.652979E-3,-3.0935029E-2,-1.3183168E-1,1.3074517E-1,-1.03222586E-1,7.584058E-2,8.940912E-3,-7.1071096E-2,-1.7030922E-1,4.149063E-2,1.1467554E-2,2.8671805E-2,6.365527E-2,1.3550122E-2,2.8697785E-3,-1.429357E-1,2.0967513E-2,5.8622997E-2,4.3709245E-2,1.8859228E-2,6.053722E-2,3.841706E-2,8.603143E-3,9.664117E-2,8.302822E-2,1.560926E-6,-5.7813856E-3,1.2029916E-1,1.5048216E-1,9.097162E-3,1.01967454E-1,5.7011943E-2,4.2186942E-2,9.3989424E-2,5.088833E-2,1.0163682E-1,-9.0930246E-2,7.272472E-2,1.4870065E-1,-5.555913E-2,5.311637E-2,9.044167E-2,-9.1867134E-2,2.635026E-2,4.3008287E-2,1.4949523E-2,-1.3286084E-1,1.134159E-1,-6.45023E-3,7.135251E-2,-1.1625224E-1,3.1012623E-2,6.7447945E-2,4.439632E-2,-5.4284442E-2,8.1023924E-2,1.1466255E-1,1.7636056E-1,-1.4865096E-1,1.5349162E-1,-7.5029224E-2,1.1300049E-1,1.1512011E-1,8.993827E-2,8.84904E-2,5.887392E-2,6.706666E-2,-6.773602E-2,-6.552517E-2,9.8427825E-2,6.7092314E-2,8.8699006E-2,1.211877E-1,1.454588E-1,1.1412758E-1,-1.1733951E-1,-1.8021688E-2,1.2561156E-1,1.3889806E-1,1.0965576E-1,8.610689E-2,1.107322E-1,-1.5610157E-1,7.5017236E-2],"split_indices":[6,6,6,1,6,6,6,6,14,1,7,7,7,5,6,6,3,14,5,15,14,2,9,2,0,6,6,14,6,5,9,3,2,5,9,3,6,2,9,1,2,0,5,15,9,6,14,11,6,5,9,9,4,0,2,8,4,11,7,14,2,11,5,9,0,3,14,2,11,6,2,9,7,14,2,5,14,7,1,14,2,4,4,11,3,14,7,3,5,12,4,14,11,0,15,9,14,14,4,14,14,15,0,4,12,2,18,7,14,7,14,15,15,9,3,4,8,9,15,2,15,15,9,14,18,14,3,14,4,0,0,7,4,12,9,6,9,8,14,11,14,12,4,14,15,15,15,3,14,9,9,11,11,9,14,0,9,7,2,5,14,14,4,12,5,14,1,6,12,1,0,3,9,1,6,6,14,4,6,15,8,4,1,12,8,6,2,9,6,2,12,4,18,7,4,14,14,14,14,8,5,15,3,3,14,14,15,15,2,4,2,3,9,2,11,3,11,4,14,1,5,15,0,4,9,0,7,6,1,7,15,9,12,15,14,3,14,4,0,7,9,11,8,0,1,18,0,0,11,3,14,0,4,0,0,0,0,0,0,0,0,0,0,0,0,0,0,0,0,0,0,0,0,0,0,0,0,0,0,0,0,0,0,0,0,0,0,0,0,0,0,0,0,0,0,0,0,0,0,0,0,0,0,0,0,0,0,0,0,0,0,0,0,0,0,0,0,0,0,0,0,0,0,0,0,0,0,0,0,0,0,0,0,0,0,0,0,0,0,0,0,0,0,0,0,0,0,0,0,0,0,0,0,0,0,0,0,0,0,0,0,0,0,0,0,0,0,0,0,0,0,0,0,0,0,0,0,0,0,0,0,0,0,0,0,0,0,0,0,0,0,0,0,0,0,0,0,0,0,0,0,0,0,0,0,0,0,0,0,0,0,0,0,0,0,0,0,0,0,0,0,0,0,0,0,0,0,0,0,0,0,0,0,0,0,0,0,0,0,0,0,0,0,0,0,0,0,0,0,0,0,0,0,0,0,0,0,0,0,0,0,0,0,0,0,0,0,0,0,0,0,0,0,0,0,0,0,0,0,0,0,0,0,0,0,0,0,0,0,0,0,0,0],"split_type":[0,0,0,0,0,0,0,0,0,0,0,0,0,0,0,0,0,0,0,0,0,0,0,0,0,0,0,0,0,0,0,0,0,0,0,0,0,0,0,0,0,0,0,0,0,0,0,0,0,0,0,0,0,0,0,0,0,0,0,0,0,0,0,0,0,0,0,0,0,0,0,0,0,0,0,0,0,0,0,0,0,0,0,0,0,0,0,0,0,0,0,0,0,0,0,0,0,0,0,0,0,0,0,0,0,0,0,0,0,0,0,0,0,0,0,0,0,0,0,0,0,0,0,0,0,0,0,0,0,0,0,0,0,0,0,0,0,0,0,0,0,0,0,0,0,0,0,0,0,0,0,0,0,0,0,0,0,0,0,0,0,0,0,0,0,0,0,0,0,0,0,0,0,0,0,0,0,0,0,0,0,0,0,0,0,0,0,0,0,0,0,0,0,0,0,0,0,0,0,0,0,0,0,0,0,0,0,0,0,0,0,0,0,0,0,0,0,0,0,0,0,0,0,0,0,0,0,0,0,0,0,0,0,0,0,0,0,0,0,0,0,0,0,0,0,0,0,0,0,0,0,0,0,0,0,0,0,0,0,0,0,0,0,0,0,0,0,0,0,0,0,0,0,0,0,0,0,0,0,0,0,0,0,0,0,0,0,0,0,0,0,0,0,0,0,0,0,0,0,0,0,0,0,0,0,0,0,0,0,0,0,0,0,0,0,0,0,0,0,0,0,0,0,0,0,0,0,0,0,0,0,0,0,0,0,0,0,0,0,0,0,0,0,0,0,0,0,0,0,0,0,0,0,0,0,0,0,0,0,0,0,0,0,0,0,0,0,0,0,0,0,0,0,0,0,0,0,0,0,0,0,0,0,0,0,0,0,0,0,0,0,0,0,0,0,0,0,0,0,0,0,0,0,0,0,0,0,0,0,0,0,0,0,0,0,0,0,0,0,0,0,0,0,0,0,0,0,0,0,0,0,0,0,0,0,0,0,0,0,0,0,0,0,0,0,0,0,0,0,0,0,0,0,0,0,0,0,0,0,0,0,0,0,0,0,0,0,0,0,0,0,0,0,0,0,0,0,0,0,0,0,0,0,0,0,0,0,0,0,0,0,0,0],"sum_hessian":[1.3179697E5,4.6584168E4,8.52128E4,1.741089E4,2.9173277E4,5.12162E4,3.3996598E4,1.2857515E4,4.553376E3,1.181153E4,1.7361748E4,1.7855629E4,3.336057E4,1.9438326E4,1.4558271E4,6.358923E3,6.498592E3,3.8960652E3,6.573109E2,7.242979E3,4.5685513E3,7.008502E3,1.0353246E4,7.8888804E3,9.966749E3,3.5906768E3,2.9769893E4,3.7034922E3,1.5734834E4,9.750218E3,4.8080537E3,2.7196555E3,3.6392673E3,2.5494508E2,6.243647E3,8.661854E2,3.0298796E3,5.1097623E2,1.4633467E2,3.9000369E3,3.3429421E3,2.206884E3,2.361667E3,1.9666731E3,5.041829E3,7.2655273E3,3.0877188E3,1.983444E2,7.690536E3,9.346895E3,6.198543E2,2.2376755E3,1.3530012E3,9.566818E3,2.0203074E4,9.699336E2,2.7335586E3,5.8549307E3,9.879903E3,1.7741086E3,7.976109E3,8.8224945E2,3.9258042E3,2.7141953E3,5.4603286E0,2.3640278E3,1.2752395E3,2.2588552E1,2.3235652E2,2.9656797E3,3.277967E3,4.2258447E2,4.4360095E2,4.2766165E2,2.602218E3,1.3150026E2,3.7947598E2,1.841925E1,1.2791541E2,1.5701021E2,3.7430266E3,1.0608701E3,2.2820718E3,8.775829E2,1.3293013E3,1.728162E3,6.3350494E2,5.0552148E2,1.4611516E3,5.0051258E1,4.991778E3,1.056087E3,6.2094404E3,2.1181273E2,2.875906E3,4.478656E1,1.5355785E2,2.3265217E3,5.3640146E3,1.5315298E3,7.8153643E3,6.123577E2,7.496569E0,4.4295572E2,1.7947198E3,1.5918774E2,1.1938135E3,7.684926E3,1.8818926E3,1.8813412E4,1.3896613E3,6.66779E2,3.031546E2,2.6208445E3,1.1271412E2,1.8248966E3,4.030034E3,1.974185E3,7.9057183E3,9.038927E1,1.6837194E3,1.2368313E3,6.7392773E3,8.7109937E2,1.1150121E1,3.775678E3,1.5012625E2,2.4492307E3,2.6496448E2,1.742892E0,3.7174363E0,8.676272E1,2.2772651E3,1.1467512E3,1.2848828E2,6.589416E0,1.5999136E1,6.1882317E1,1.7047421E2,1.8551315E3,1.1105483E3,1.4165797E1,3.2638013E3,4.082776E2,1.4306891E1,1.949553E1,4.2410544E2,3.9062878E2,3.703289E1,1.9620045E3,6.402135E2,6.3968655E1,6.75316E1,5.5581543E1,3.2389444E2,7.9780416E0,1.044121E1,6.856558E0,1.2105886E2,3.914717E1,1.1786304E2,2.1521716E3,1.5908549E3,2.3901604E2,8.218541E2,1.3608457E3,9.212262E2,8.4820886E2,2.937405E1,3.68036E2,9.6126526E2,7.1728687E2,1.0108751E3,2.2231888E2,4.1118607E2,1.9213263E2,3.1338885E2,4.454351E2,1.0157165E3,4.0192688E1,9.858567E0,4.96464E3,2.7137775E1,1.0425283E3,1.3558702E1,7.467495E2,5.462691E3,3.924042E1,1.7257231E2,2.034005E3,8.41901E2,3.2957447E1,1.1829112E1,1.2951996E2,2.4037891E1,1.460252E3,8.6626965E2,4.008371E3,1.3556434E3,4.0107825E2,1.1304515E3,2.515787E3,5.2995776E3,6.854227E1,5.438154E2,2.0659212E1,4.222965E2,2.2713543E1,1.7720062E3,8.204025E1,7.714749E1,7.180411E2,4.7577246E2,7.083089E3,6.018367E2,7.380946E1,1.8080831E3,1.410737E4,4.7060425E3,3.443615E2,1.0452997E3,6.6404285E2,2.736157E0,4.3379E1,2.597756E2,1.7119741E3,9.088704E2,5.4132454E1,5.858166E1,1.6251609E3,1.997358E2,3.8694736E3,1.6056033E2,1.0878594E3,8.863256E2,5.182615E3,2.7231028E3,8.333183E1,7.0574393E0,6.040552E1,1.6233138E3,1.1659176E3,7.091373E1,3.1874297E3,3.5518477E3,8.6824713E2,2.852198E0,2.4875984E0,8.662522E0,9.8045575E2,2.7952224E3,3.7364423E0,1.4638982E2,2.3965269E3,5.2703938E1,2.4429439E2,2.0670103E1,6.3831886E1,2.2930836E1,9.127842E2,1.364481E3,4.6995047E2,6.768008E2,2.4404245E1,1.0408404E2,2.3566754E0,4.232741E0,1.3391303E1,2.6078324E0,6.002042E1,1.8618969E0,1.5315886E2,1.731535E1,1.7976754E3,5.745607E1,7.2230354E1,1.0383179E3,3.4908087E0,1.0674989E1,1.5057533E2,3.113226E3,3.006548E2,1.0762279E2,9.56949E0,4.7374015E0,3.4883895E0,1.6007141E1,8.198317E0,4.159071E2,3.461459E2,4.448286E1,2.1239473E1,1.5793417E1,8.414025E2,1.120602E3,4.6365814E2,1.7655536E2,6.210404E1,1.8646183E0,1.7789413E1,4.9742184E1,3.9153664E1,1.642788E1,2.7776755E2,4.6126877E1,7.6969957E0,2.744214E0,5.242192E0,1.6143659E0,6.7294426E0,1.14329414E2,1.3075741E1,2.6071428E1,6.4589165E1,5.3273872E1,1.311689E3,8.404827E2,9.387103E2,6.5214453E2,2.1045897E2,2.8557068E1,1.3372647E2,6.881277E2,4.6749866E2,8.9334705E2,4.8158527E1,8.730676E2,5.1972107E2,3.2848776E2,2.6626152E1,2.7478976E0,1.9155092E1,3.4888092E2,2.9605838E2,6.6520685E2,2.6630957E2,4.509773E2,2.1173984E2,7.991353E2,1.5668074E2,6.5638145E1,8.363757E1,3.275485E2,6.0995033E1,1.3113759E2,8.450036E0,3.0493884E2,4.215035E2,2.3931599E1,4.0864368E2,6.070728E2,3.2471812E0,3.6945507E1,2.1149435E0,7.7436233E0,2.852685E3,2.111955E3,2.4640123E1,2.4976532E0,7.835394E2,2.5898895E2,1.7483735E0,1.18103285E1,6.515833E2,9.516623E1,1.5026108E3,3.96008E3,5.9914308E0,3.3248993E1,1.1824795E2,5.4324368E1,9.473316E1,1.9392719E3,5.8933673E2,2.5256424E2,2.971549E1,3.2419574E0,9.715137E0,2.1139762E0,9.125541E1,3.826455E1,1.0196628E1,1.3841264E1,1.0207999E3,4.3945203E2,6.293358E1,8.033361E2,1.4667535E3,2.5416177E3,9.079025E2,4.477409E2,3.5273743E2,4.8340824E1,8.7986404E1,1.0424652E3,2.5538173E2,2.2604053E3,2.0907554E3,3.208822E3,5.5236637E1,1.3305629E1,3.6646297E1,5.0716916E2,2.2495143E0,1.8409698E1,2.88224E2,1.3407251E2,1.6485737E1,6.227805E0,1.4518384E3,3.2016794E2,1.7478548E0,8.02924E1,1.3465787E1,6.3681705E1,6.6405554E2,5.398552E1,4.7447143E0,4.7102774E2,4.842646E3,2.2404434E3,4.3931726E2,1.625194E2,5.0087906E1,2.3721558E1,4.8200296E2,1.3260802E3,1.2884373E4,1.2229974E3,3.7602268E3,9.458155E2,1.9302327E2,1.5133824E2,8.248394E1,9.628158E2,1.2406463E1,6.516364E2,4.052545E1,2.8535519E0,1.063774E2,1.533982E2,1.02612564E2,1.6093615E3,6.454907E2,2.6337973E2,6.3545923E0,4.7777863E1,3.2290769E0,5.5352585E1,8.482777E2,7.768832E2,3.9744114E1,1.5999168E2,3.1125005E3,7.5697314E2,1.7458074E0,1.5881453E2,1.19402466E2,9.684569E2,1.5455664E1,8.7087E2,4.4207256E3,7.618897E2,2.102496E1,2.702078E3,1.1385568E1,7.1946266E1,2.2385018E0,4.818938E0,1.912808E1,4.127744E1,1.2829338E3,3.4038004E2,6.1702716E2,5.4889044E2,3.4352936E1,3.656079E1,1.3543546E1,3.1738862E3,1.8019293E3,1.7499185E3,1.0471849E2,7.635287E2,1.6060817E0,1.2461163E0,3.3464146E0,5.3161073E0,5.3890497E2,4.4155078E2,6.36378E2,2.1588442E3,2.739586E0,1.4365022E2],"tree_param":{"num_deleted":"0","num_feature":"19","num_nodes":"493","size_leaf_vector":"1"}},{"base_weights":[3.3363337E-3,-7.062944E-1,4.0113303E-1,-1.0134842E0,-3.7604004E-1,1.1359313E-1,6.271035E-1,-1.3694822E0,-8.7254757E-1,-4.9430922E-1,-2.4964464E-1,-1.8860137E-2,2.2526653E-1,4.999905E-1,8.6124545E-1,-1.4446473E0,-1.1005522E0,-1.0068482E0,-5.7674104E-1,-5.8240557E-1,-2.1462364E-1,-6.0438174E-1,-2.0517996E-1,-1.1116891E-1,5.3268503E-2,7.7231064E-2,2.9185912E-1,7.056386E-1,4.5989823E-1,1.113017E0,8.0469704E-1,-1.6442304E0,-1.3809307E0,-1.1251142E0,8.142658E-1,-1.118642E0,-8.823794E-1,-7.897774E-1,-3.9572838E-1,-7.0567805E-1,-4.7026518E-1,-6.0388654E-1,-1.452712E-1,-1.0876487E0,-5.2806365E-1,-8.951278E-1,-1.8652542E-1,-6.984364E-1,-9.771543E-2,2.0923188E-2,2.9765123E-1,4.1686468E-2,3.9091134E-1,2.573225E-1,4.7879556E-1,3.728147E-1,7.598726E-1,4.0248254E-1,5.7488495E-1,1.2056268E0,8.78132E-1,8.756941E-1,7.1861404E-1,-1.6994324E-1,-1.5465486E0,-1.3970579E0,-8.376155E-1,-1.3283268E0,-9.352458E-1,1.1816257E0,-1.2602822E-1,-3.6189678E-1,-1.1377503E0,-9.5300794E-1,-6.747264E-1,-1.0408083E0,-7.080535E-1,-1.080485E0,-3.2803515E-1,-8.823369E-1,-6.1102384E-1,-5.0381815E-1,-1.0292951E-1,-2.3978746E-1,-9.342653E-1,-4.1861123E-1,-2.4794836E-2,-5.2785116E-1,-1.4829069E0,-4.4228402E-1,-1.0938349E0,-1.4575012E0,-5.793011E-1,-2.625407E-1,-7.281494E-2,1.8395329E-1,-8.875573E-1,-1.7601949E-1,-2.761332E-2,2.0055586E-1,-2.8516961E-2,2.2755118E-1,6.45856E-1,-1.1816574E-2,1.9128573E-1,4.833815E-1,-9.0507066E-1,-4.3877792E-1,2.654352E-1,3.7033647E-1,5.5797964E-1,-4.5072034E-1,4.5970163E-1,8.6164814E-1,6.4602715E-1,4.898033E-1,3.041504E-1,7.1097225E-1,5.0246656E-1,1.5068386E0,1.1429195E0,1.6984749E-1,1.0174999E0,8.0008113E-1,9.574403E-1,6.7214584E-1,8.401683E-1,-9.9660975E-1,-1.6033483E0,-1.1504319E0,-1.4287996E0,-1.3281285E0,-2.1407148E-1,-1.6722068E0,-1.2012867E0,-1.5936401E0,-7.973868E-1,1.6540763E-1,1.6968647E0,-4.7886025E-2,-1.206452E0,-1.2754569E0,-1.0331483E0,-8.993132E-1,-1.1630048E0,-3.809276E-1,-7.696268E-1,-1.1076636E0,-1.9588679E-1,-6.819236E-1,-1.4382603E0,-4.079495E-1,-1.285578E0,-6.1303425E-1,-2.3336862E-1,-5.1044244E-1,-1.0285314E0,-4.3308297E-1,-7.233621E-1,-5.368016E-1,-1.1931147E-1,-5.664114E-2,-1.7813902E-1,-1.7284934E-1,-1.5013233E-1,-1.1127752E0,-3.785832E-1,-5.420307E-1,1.41084585E-2,1.1427974E-2,-1.1997015E0,-3.74012E-2,-1.3622022E0,-1.6530713E0,-1.8465558E-1,2.5105947E-1,-5.032702E-1,-1.3146535E0,1.1066464E0,-3.2396317E-1,-1.5685456E0,-7.003611E-1,5.4804105E-1,3.1290065E-2,-2.8990275E-1,-7.5634253E-1,-5.6035884E-2,-1.5893249E-1,6.603503E-1,-9.8511696E-1,1.1135572E0,5.803602E-1,-1.9492806E-1,-2.2419796E-3,-3.5968506E-1,4.6020404E-1,2.0423861E-2,-9.6181735E-2,1.23964146E-1,-1.292409E0,2.4617031E-1,-1.6329734E-1,7.0506096E-1,-8.471413E-1,-1.30654E-3,-5.585763E-1,2.325417E-1,5.654886E-1,-3.850456E-1,6.877573E-3,-1.4586728E0,-6.7754203E-1,7.326471E-1,2.2447854E-1,3.943357E-1,2.3337877E-1,5.4436547E-1,4.9039444E-1,8.46063E-1,1.3185813E-1,-1.714186E0,6.601835E-1,2.0101681E-1,8.749522E-1,-2.3806266E-1,5.537072E-1,8.618567E-1,5.9728694E-1,3.4997997E-1,2.7978706E-1,7.5880164E-1,7.1872324E-1,-1.9124816E-1,2.7384514E-2,5.241616E-1,1.5896646E0,1.268736E0,1.01234645E-1,1.1494664E0,-8.0281876E-2,1.001042E0,7.2931415E-1,1.0773169E0,1.0600165E0,7.4064237E-1,9.605788E-1,-1.760609E-1,6.365329E-1,8.599357E-1,9.920036E-1,7.2777975E-1,-1.6425312E-1,-2.7076542E-2,-1.6160077E-1,-9.731296E-2,-1.4863887E-1,-7.3568486E-2,-1.4481454E-1,-1.0686826E-1,-8.240702E-2,-1.6885427E-1,-6.704449E-2,1.2502621E-1,-1.04425766E-1,-1.7032011E-1,-1.07020296E-1,-1.6698162E-1,1.0899617E-1,-1.6342534E-1,-1.0231546E-1,-3.952059E-2,1.4784025E-1,-1.3587627E-1,1.9521949E-1,5.077678E-2,6.0757883E-2,-8.296349E-2,-1.453312E-1,4.748995E-2,-1.3065468E-1,-9.0660796E-2,7.604001E-2,-1.0430235E-1,-9.9867575E-2,-7.248611E-2,-1.3971694E-1,-9.276307E-2,2.8654097E-2,-5.607602E-2,-8.5951485E-2,-1.7468197E-2,-1.0308738E-1,-1.8184339E-1,9.892472E-2,-1.5155324E-1,-9.414898E-2,-6.090605E-2,1.04350545E-1,-1.5284513E-1,-1.7542906E-1,1.7890852E-2,-1.4945896E-1,-6.3347265E-2,-1.0001111E-1,-4.221144E-2,-4.509976E-2,-5.2026804E-3,-1.5575713E-1,-3.751301E-2,-1.2583724E-1,-8.4387265E-2,-8.458657E-2,-2.6985064E-2,-8.135099E-2,-4.8134923E-2,-5.483789E-2,3.2194678E-2,-4.8749562E-2,3.3616137E-2,-1.5196333E-2,7.122912E-2,2.8009951E-2,-6.410269E-2,-8.77172E-2,-1.7146195E-1,-1.757875E-1,-4.7873836E-3,-7.4516766E-2,-1.7666219E-2,4.7246978E-2,-2.8684122E-2,3.7919775E-2,-7.149172E-3,-1.3751938E-2,-1.640737E-1,-1.09673075E-1,6.0742855E-2,-1.8270753E-1,-1.8704547E-2,1.2678908E-1,-1.72466E-1,6.526839E-2,-1.5428577E-1,-1.0534524E-1,6.280717E-2,-1.010192E-1,-4.321658E-2,-1.7297195E-1,-1.0017957E-1,1.4882836E-1,-1.1247516E-1,-1.541029E-1,1.0836925E-1,-1.00436844E-1,-1.8697558E-1,-2.117402E-2,-1.2969649E-1,1.5053992E-1,-7.916763E-2,2.088782E-2,-3.822707E-2,-3.1899564E-2,-4.4574016E-3,-9.0846494E-2,1.4217049E-1,1.6793573E-2,-1.1130869E-2,8.943876E-2,-1.18077934E-1,-1.0580756E-1,9.8076455E-2,1.5621804E-1,2.7692942E-2,-6.0564633E-2,9.363668E-2,-1.8162979E-4,-2.858004E-2,3.389591E-2,-2.9410087E-3,-6.6937E-2,2.6505862E-3,6.331171E-2,8.1516225E-3,-1.4778342E-3,1.2206117E-1,-1.4274804E-1,-8.8601895E-3,-2.4482455E-2,2.0503802E-2,9.314952E-2,-1.827796E-1,1.4424294E-2,4.8108693E-2,8.043257E-2,1.1319845E-2,-1.5070653E-3,-1.3547173E-1,-1.3099951E-2,7.470917E-3,-2.4315747E-2,-1.878856E-1,1.5585638E-2,4.7785252E-2,-2.2409078E-2,6.272367E-2,1.0719448E-1,-6.746548E-2,-1.0719778E-1,1.16428845E-1,1.20476924E-1,-1.6802458E-1,-1.954159E-1,-4.844213E-2,1.3071486E-1,-8.379578E-2,1.707255E-2,3.7143115E-2,6.802928E-2,3.278343E-2,-5.1042374E-2,3.0588556E-2,7.4461214E-2,2.4406072E-2,5.8921095E-2,3.2822337E-2,6.770396E-2,1.1744546E-1,-1.0373326E-1,6.1962247E-2,-2.0026472E-1,2.5603637E-2,4.4125088E-2,9.77494E-2,-1.4532767E-1,2.8336903E-2,8.823061E-2,-1.0783553E-1,5.3938847E-2,-1.417911E-1,-4.3773104E-2,5.9027918E-2,-3.3098396E-2,8.921071E-2,7.816775E-2,4.9776085E-2,2.0318804E-2,4.6624046E-2,3.0325342E-2,-9.14007E-3,9.0214275E-2,-3.3807304E-2,4.717884E-2,7.914263E-2,-3.4956854E-2,5.707711E-2,6.6496424E-2,4.6050053E-2,1.5959251E-1,5.22403E-2,1.3881364E-1,-8.397301E-2,8.740984E-2,-1.5893492E-1,1.10579036E-1,1.3017517E-1,-1.8448992E-1,2.8700691E-3,-7.0961885E-2,1.3178204E-1,-5.7292767E-2,9.921768E-2,7.59256E-2,1.11958005E-1,5.9065938E-2,1.1796844E-1,7.084874E-2,1.2183912E-1,-2.6393026E-2,9.675894E-2,6.0679253E-2,8.499536E-2,9.477063E-2,4.9060013E-2,3.9803732E-2,1.05056815E-1,9.9003226E-2,6.0651064E-2],"categories":[],"categories_nodes":[],"categories_segments":[],"categories_sizes":[],"default_left":[0,0,0,0,0,0,0,0,0,0,0,0,0,0,0,0,0,0,0,0,0,0,0,0,0,0,0,0,0,0,0,0,0,0,0,0,0,0,0,0,0,0,0,0,0,0,0,0,0,0,0,0,0,0,0,0,0,0,0,0,0,0,0,0,0,0,0,0,0,0,0,0,0,0,0,0,0,0,0,0,0,0,0,0,0,0,0,0,0,0,0,0,0,0,0,0,0,0,0,0,0,0,0,0,0,0,0,0,0,0,0,0,0,0,0,0,0,0,0,0,0,0,0,0,0,0,0,0,0,0,0,0,0,0,0,0,0,0,0,0,0,0,0,0,0,0,0,0,0,0,0,0,0,0,0,0,0,0,0,0,0,0,0,0,0,0,0,0,0,0,0,0,0,0,0,0,0,0,0,0,0,0,0,0,0,0,0,0,0,0,0,0,0,0,0,0,0,0,0,0,0,0,0,0,0,0,0,0,0,0,0,0,0,0,0,0,0,0,0,0,0,0,0,0,0,0,0,0,0,0,0,0,0,0,0,0,0,0,0,0,0,0,0,0,0,0,0,0,0,0,0,0,0,0,0,0,0,0,0,0,0,0,0,0,0,0,0,0,0,0,0,0,0,0,0,0,0,0,0,0,0,0,0,0,0,0,0,0,0,0,0,0,0,0,0,0,0,0,0,0,0,0,0,0,0,0,0,0,0,0,0,0,0,0,0,0,0,0,0,0,0,0,0,0,0,0,0,0,0,0,0,0,0,0,0,0,0,0,0,0,0,0,0,0,0,0,0,0,0,0,0,0,0,0,0,0,0,0,0,0,0,0,0,0,0,0,0,0,0,0,0,0,0,0,0,0,0,0,0,0,0,0,0,0,0,0,0,0,0,0,0,0,0,0,0,0,0,0,0,0,0,0,0,0,0,0,0,0,0,0,0,0,0,0,0,0,0,0,0,0,0,0,0,0,0,0,0,0,0,0,0,0,0,0,0,0,0,0,0,0,0,0,0,0,0,0,0,0,0,0,0,0,0,0,0,0,0,0,0,0,0,0,0,0,0,0,0,0,0,0,0,0,0,0,0,0,0,0,0,0,0,0,0,0,0,0,0],"id":2,"left_children":[1,3,5,7,9,11,13,15,17,19,21,23,25,27,29,31,33,35,37,39,41,43,45,47,49,51,53,55,57,59,61,63,65,67,69,71,73,75,77,79,81,83,85,87,89,91,93,95,97,99,101,103,105,107,109,111,113,115,117,119,121,123,125,-1,127,129,131,133,135,137,-1,139,141,143,145,147,149,151,153,155,157,159,161,163,165,167,169,171,173,175,177,179,181,183,185,187,189,191,193,195,197,199,201,203,205,207,209,211,213,215,217,219,221,223,225,227,229,231,233,235,237,239,241,243,245,247,249,251,253,255,257,259,261,263,265,267,269,271,273,275,277,279,281,283,285,287,289,291,293,295,297,299,301,303,305,307,309,311,313,315,317,319,-1,-1,321,323,325,327,329,331,333,335,337,339,341,343,345,347,349,351,353,355,357,359,361,363,365,-1,367,369,371,373,375,377,379,381,383,385,387,389,391,-1,393,395,397,399,401,403,405,407,409,411,413,415,417,419,421,423,425,427,429,431,433,435,437,439,441,443,445,447,449,451,-1,453,455,457,459,461,463,465,467,469,471,473,475,477,-1,479,481,483,485,-1,-1,-1,-1,-1,-1,-1,-1,-1,-1,-1,-1,-1,-1,-1,-1,-1,-1,-1,-1,-1,-1,-1,-1,-1,-1,-1,-1,-1,-1,-1,-1,-1,-1,-1,-1,-1,-1,-1,-1,-1,-1,-1,-1,-1,-1,-1,-1,-1,-1,-1,-1,-1,-1,-1,-1,-1,-1,-1,-1,-1,-1,-1,-1,-1,-1,-1,-1,-1,-1,-1,-1,-1,-1,-1,-1,-1,-1,-1,-1,-1,-1,-1,-1,-1,-1,-1,-1,-1,-1,-1,-1,-1,-1,-1,-1,-1,-1,-1,-1,-1,-1,-1,-1,-1,-1,-1,-1,-1,-1,-1,-1,-1,-1,-1,-1,-1,-1,-1,-1,-1,-1,-1,-1,-1,-1,-1,-1,-1,-1,-1,-1,-1,-1,-1,-1,-1,-1,-1,-1,-1,-1,-1,-1,-1,-1,-1,-1,-1,-1,-1,-1,-1,-1,-1,-1,-1,-1,-1,-1,-1,-1,-1,-1,-1,-1,-1,-1,-1,-1,-1,-1,-1,-1,-1,-1,-1,-1,-1,-1,-1,-1,-1,-1,-1,-1,-1,-1,-1,-1,-1,-1,-1,-1,-1,-1,-1,-1,-1,-1,-1,-1,-1,-1,-1,-1,-1,-1,-1,-1,-1,-1,-1,-1,-1,-1,-1,-1,-1,-1,-1,-1,-1,-1,-1,-1,-1,-1,-1,-1,-1,-1,-1,-1,-1,-1],"loss_changes":[3.7005598E4,4.776838E3,5.4580176E3,1.2228223E3,3.3912476E2,5.467938E2,1.399502E3,1.3823438E2,6.93833E2,2.8872046E2,1.7294403E2,1.1260031E2,1.9769647E2,2.5105078E2,2.347207E2,6.643848E1,7.217908E1,1.6627441E2,2.1025085E2,1.2289819E2,7.57621E1,4.4481384E1,1.25342896E2,5.8540543E1,7.503869E1,6.938251E1,8.918652E1,8.946875E1,1.6823535E2,6.490991E1,8.198633E1,4.393799E0,3.476953E1,5.649585E1,1.6556038E1,9.110449E1,8.284375E1,5.0700806E1,1.3657596E2,7.043359E1,5.751831E1,5.0846527E1,7.856546E1,3.587297E1,5.081186E1,4.470552E1,8.206326E1,2.7860016E1,3.9809555E1,7.447505E1,2.6937553E1,4.476E1,7.6343895E1,6.606659E1,1.830954E1,5.0200554E1,4.8972168E1,1.4601392E2,8.337036E1,3.9310303E1,8.484436E1,4.499463E1,3.3976562E1,0E0,1.34366455E1,2.9529297E1,3.66445E1,2.9464844E1,6.925415E1,8.783773E0,0E0,4.166809E1,8.759375E1,4.682251E1,4.008441E1,3.4447083E1,3.516925E1,3.607199E1,7.242557E1,7.986023E1,5.4995605E1,5.4213013E1,3.0370148E1,2.687738E1,2.1623962E1,3.8987923E1,7.054105E1,2.8640396E1,2.1024231E1,3.9005966E1,6.874028E1,1.1018021E1,2.30234E1,4.57641E1,4.360965E1,2.649599E1,2.7813492E1,4.9111244E1,3.2251976E1,8.4640144E1,6.786361E1,2.650161E1,2.6165802E1,3.616764E1,4.5703037E1,4.2420242E1,2.1482693E1,3.8230846E1,6.085791E1,2.1629036E1,2.381012E1,4.9677784E1,3.2669357E1,3.3184937E1,3.9805237E1,1.3526636E2,8.850293E1,6.1327026E1,5.717273E1,5.3033447E0,1.2174072E1,2.9770664E1,1.1616638E1,5.8729492E1,3.1994385E1,2.9072754E1,2.8069824E1,2.1919304E1,1.8950195E0,6.2889343E1,2.3002441E1,1.085054E1,3.716134E1,1.9544678E0,3.0741516E1,1.6334076E1,5.811377E1,1.5882083E1,2.463707E0,5.98078E1,1.8372719E1,2.9322754E1,6.30166E1,5.795581E1,4.6161377E1,4.2838444E1,5.833539E1,2.9151245E1,7.3770996E1,3.4057373E1,1.6044235E1,5.046055E1,2.6701721E1,4.909482E1,7.972331E1,5.8810776E1,4.3940186E1,7.208873E1,3.657959E1,3.936133E1,5.708093E1,2.815905E1,0E0,0E0,4.0912155E1,2.2273956E1,2.5255177E1,4.202028E1,2.261374E1,4.908242E1,2.2997383E1,3.1532051E1,1.38230095E1,2.0010162E1,1.5011731E1,3.7550575E1,3.003801E1,1.466835E1,1.2890623E1,1.7826172E1,1.22504425E1,4.3522125E1,2.254353E1,3.575263E1,3.714508E1,3.1479916E1,4.6020985E1,0E0,1.1591256E1,1.9829178E1,2.1312485E0,3.595268E1,5.866662E1,3.2986835E1,3.2514523E1,4.84868E1,4.5208027E1,4.584377E1,6.0498825E1,1.5223967E1,2.1835999E1,0E0,1.0566887E1,2.1598835E1,4.013067E1,3.1657444E1,2.6205772E1,2.6524185E1,2.2546997E1,2.2552523E1,1.7645885E1,2.6811462E1,2.2140102E1,6.915729E1,5.2686737E1,2.7798435E1,2.3946922E1,1.5994659E1,1.2251495E1,2.7395206E1,1.2603123E1,2.4292557E1,3.8230206E1,3.2944336E1,2.6198978E1,5.1701874E1,2.2085815E1,9.311621E1,6.680841E1,6.625574E1,6.42601E1,5.241516E1,0E0,5.004782E1,4.725525E1,9.7991943E-1,2.6529633E1,1.7528812E1,1.0471924E1,2.1341637E1,1.8876308E1,4.3959938E1,7.130554E0,3.943921E1,4.734973E1,3.0720459E1,0E0,2.313916E1,2.233014E1,2.4450378E1,3.0354065E1,0E0,0E0,0E0,0E0,0E0,0E0,0E0,0E0,0E0,0E0,0E0,0E0,0E0,0E0,0E0,0E0,0E0,0E0,0E0,0E0,0E0,0E0,0E0,0E0,0E0,0E0,0E0,0E0,0E0,0E0,0E0,0E0,0E0,0E0,0E0,0E0,0E0,0E0,0E0,0E0,0E0,0E0,0E0,0E0,0E0,0E0,0E0,0E0,0E0,0E0,0E0,0E0,0E0,0E0,0E0,0E0,0E0,0E0,0E0,0E0,0E0,0E0,0E0,0E0,0E0,0E0,0E0,0E0,0E0,0E0,0E0,0E0,0E0,0E0,0E0,0E0,0E0,0E0,0E0,0E0,0E0,0E0,0E0,0E0,0E0,0E0,0E0,0E0,0E0,0E0,0E0,0E0,0E0,0E0,0E0,0E0,0E0,0E0,0E0,0E0,0E0,0E0,0E0,0E0,0E0,0E0,0E0,0E0,0E0,0E0,0E0,0E0,0E0,0E0,0E0,0E0,0E0,0E0,0E0,0E0,0E0,0E0,0E0,0E0,0E0,0E0,0E0,0E0,0E0,0E0,0E0,0E0,0E0,0E0,0E0,0E0,0E0,0E0,0E0,0E0,0E0,0E0,0E0,0E0,0E0,0E0,0E0,0E0,0E0,0E0,0E0,0E0,0E0,0E0,0E0,0E0,0E0,0E0,0E0,0E0,0E0,0E0,0E0,0E0,0E0,0E0,0E0,0E0,0E0,0E0,0E0,0E0,0E0,0E0,0E0,0E0,0E0,0E0,0E0,0E0,0E0,0E0,0E0,0E0,0E0,0E0,0E0,0E0,0E0,0E0,0E0,0E0,0E0,0E0,0E0,0E0,0E0,0E0,0E0,0E0,0E0,0E0,0E0,0E0,0E0,0E0,0E0,0E0,0E0,0E0,0E0,0E0,0E0,0E0,0E0,0E0,0E0,0E0,0E0,0E0,0E0,0E0,0E0,0E0,0E0,0E0,0E0,0E0,0E0,0E0,0E0,0E0,0E0,0E0,0E0,0E0],"parents":[2147483647,0,0,1,1,2,2,3,3,4,4,5,5,6,6,7,7,8,8,9,9,10,10,11,11,12,12,13,13,14,14,15,15,16,16,17,17,18,18,19,19,20,20,21,21,22,22,23,23,24,24,25,25,26,26,27,27,28,28,29,29,30,30,31,31,32,32,33,33,34,34,35,35,36,36,37,37,38,38,39,39,40,40,41,41,42,42,43,43,44,44,45,45,46,46,47,47,48,48,49,49,50,50,51,51,52,52,53,53,54,54,55,55,56,56,57,57,58,58,59,59,60,60,61,61,62,62,64,64,65,65,66,66,67,67,68,68,69,69,71,71,72,72,73,73,74,74,75,75,76,76,77,77,78,78,79,79,80,80,81,81,82,82,83,83,84,84,85,85,86,86,87,87,88,88,89,89,90,90,91,91,92,92,93,93,94,94,95,95,96,96,97,97,98,98,99,99,100,100,101,101,102,102,103,103,104,104,105,105,106,106,107,107,108,108,109,109,110,110,111,111,112,112,113,113,114,114,115,115,116,116,117,117,118,118,119,119,120,120,121,121,122,122,123,123,124,124,125,125,126,126,127,127,128,128,129,129,130,130,131,131,132,132,133,133,134,134,135,135,136,136,137,137,138,138,139,139,140,140,141,141,142,142,143,143,144,144,145,145,146,146,147,147,148,148,149,149,150,150,151,151,152,152,153,153,154,154,155,155,156,156,157,157,158,158,159,159,160,160,161,161,164,164,165,165,166,166,167,167,168,168,169,169,170,170,171,171,172,172,173,173,174,174,175,175,176,176,177,177,178,178,179,179,180,180,181,181,182,182,183,183,184,184,185,185,186,186,188,188,189,189,190,190,191,191,192,192,193,193,194,194,195,195,196,196,197,197,198,198,199,199,200,200,202,202,203,203,204,204,205,205,206,206,207,207,208,208,209,209,210,210,211,211,212,212,213,213,214,214,215,215,216,216,217,217,218,218,219,219,220,220,221,221,222,222,223,223,224,224,225,225,226,226,227,227,228,228,229,229,230,230,231,231,233,233,234,234,235,235,236,236,237,237,238,238,239,239,240,240,241,241,242,242,243,243,244,244,245,245,247,247,248,248,249,249,250,250],"right_children":[2,4,6,8,10,12,14,16,18,20,22,24,26,28,30,32,34,36,38,40,42,44,46,48,50,52,54,56,58,60,62,64,66,68,70,72,74,76,78,80,82,84,86,88,90,92,94,96,98,100,102,104,106,108,110,112,114,116,118,120,122,124,126,-1,128,130,132,134,136,138,-1,140,142,144,146,148,150,152,154,156,158,160,162,164,166,168,170,172,174,176,178,180,182,184,186,188,190,192,194,196,198,200,202,204,206,208,210,212,214,216,218,220,222,224,226,228,230,232,234,236,238,240,242,244,246,248,250,252,254,256,258,260,262,264,266,268,270,272,274,276,278,280,282,284,286,288,290,292,294,296,298,300,302,304,306,308,310,312,314,316,318,320,-1,-1,322,324,326,328,330,332,334,336,338,340,342,344,346,348,350,352,354,356,358,360,362,364,366,-1,368,370,372,374,376,378,380,382,384,386,388,390,392,-1,394,396,398,400,402,404,406,408,410,412,414,416,418,420,422,424,426,428,430,432,434,436,438,440,442,444,446,448,450,452,-1,454,456,458,460,462,464,466,468,470,472,474,476,478,-1,480,482,484,486,-1,-1,-1,-1,-1,-1,-1,-1,-1,-1,-1,-1,-1,-1,-1,-1,-1,-1,-1,-1,-1,-1,-1,-1,-1,-1,-1,-1,-1,-1,-1,-1,-1,-1,-1,-1,-1,-1,-1,-1,-1,-1,-1,-1,-1,-1,-1,-1,-1,-1,-1,-1,-1,-1,-1,-1,-1,-1,-1,-1,-1,-1,-1,-1,-1,-1,-1,-1,-1,-1,-1,-1,-1,-1,-1,-1,-1,-1,-1,-1,-1,-1,-1,-1,-1,-1,-1,-1,-1,-1,-1,-1,-1,-1,-1,-1,-1,-1,-1,-1,-1,-1,-1,-1,-1,-1,-1,-1,-1,-1,-1,-1,-1,-1,-1,-1,-1,-1,-1,-1,-1,-1,-1,-1,-1,-1,-1,-1,-1,-1,-1,-1,-1,-1,-1,-1,-1,-1,-1,-1,-1,-1,-1,-1,-1,-1,-1,-1,-1,-1,-1,-1,-1,-1,-1,-1,-1,-1,-1,-1,-1,-1,-1,-1,-1,-1,-1,-1,-1,-1,-1,-1,-1,-1,-1,-1,-1,-1,-1,-1,-1,-1,-1,-1,-1,-1,-1,-1,-1,-1,-1,-1,-1,-1,-1,-1,-1,-1,-1,-1,-1,-1,-1,-1,-1,-1,-1,-1,-1,-1,-1,-1,-1,-1,-1,-1,-1,-1,-1,-1,-1,-1,-1,-1,-1,-1,-1,-1,-1,-1,-1,-1,-1,-1,-1,-1],"split_conditions":[-2.4295522E-1,-5.729493E-1,3.4255853E-1,-8.9580876E-1,-3.9762446E-1,-3.724896E-4,1.3333987E0,6.0427897E-2,1.0690693E-1,3.5024437E-1,-7.105804E-1,-3.06611E-1,-4.666065E-1,-1.2308692E0,-2.5549133E0,-1.0689464E0,-4.1095608E-1,-7.204418E-1,-2.0751192E-1,-2.4529588E-1,1.2031624E-1,-8.593069E-1,-7.5468165E-1,-1.2347995E0,1.3971574E0,1.3921412E0,1.0574409E0,-6.70309E-1,8.454587E-1,3.4504393E-1,-2.813697E-1,2.8493593E-3,-8.574539E-2,-7.578563E-1,-9.122341E-1,-5.916857E-1,2.1794116E-1,1.493599E-1,-5.2128744E-1,-1.6103713E-1,5.403833E-1,4.3755022E-1,-4.5751682E-1,-1.0782082E0,5.801033E-1,-3.316581E-1,1.7124083E-2,-1.1046755E0,-1.3042578E-1,-1.2016861E0,-4.0083367E-2,1.8952854E-1,1.3219612E0,-1.5746001E0,1.4111291E-1,-2.1970444E0,-3.8899627E-1,9.5671624E-2,-6.3851273E-1,-4.0006943E0,2.147483E0,-1.4940524E0,2.434617E0,-1.6994324E-1,-1.1745443E-1,-8.867586E-1,-1.6269637E-2,-1.0407279E0,-2.4269344E-1,1.9590187E0,-1.2602822E-1,-1.450615E-1,-1.00518405E-1,7.244524E-1,-3.4485582E-1,8.3266735E-1,1.5003306E0,-1.0417953E0,1.21149905E-1,-6.015709E-1,-5.45422E-1,9.6894616E-1,3.0727854E-1,-5.6009793E-1,7.653336E-2,-1.237366E-1,1.4338746E0,-8.0736506E-1,-1.804497E-2,-7.028352E-1,3.8149273E-1,-1.3423787E0,7.6013523E-1,-6.0990226E-1,-1.1951164E0,-5.02864E-1,8.3266735E-1,-1.652281E0,1.2289186E0,-3.9020208E-1,4.7914106E-1,4.50588E-1,5.507265E-1,-1.5196173E0,-1.2909458E0,5.352346E-1,-2.2869481E-1,5.310294E-1,2.513984E-1,9.2920583E-1,8.0529404E-1,9.5671624E-2,-4.0846524E-1,1.417523E0,9.716591E-1,3.8149273E-1,2.525068E0,1.6110892E0,-9.048467E-1,-3.06873E0,2.0382284E-1,2.2527854E0,2.8291538E0,-1.3012869E0,2.0692203E0,2.0281856E0,-4.5044877E-2,-6.789253E-1,-3.54984E-1,-9.935884E-1,-2.1353824E-1,-6.790141E-1,9.6784204E-2,-9.183605E-1,1.5434544E-1,-2.5283616E0,1.895457E-1,-1.1655385E0,2.1218981E-1,-5.021476E-1,-9.5112884E-1,3.2751012E-1,-4.2544702E-1,1.1710604E-1,-1.570736E-2,-5.2128744E-1,1.3942404E0,-3.527374E-1,1.071308E0,-6.015709E-1,-1.4256546E0,1.7659064E-1,-7.864089E-2,-7.666988E-1,8.542067E-2,-1.5951178E0,-4.8445854E-1,-4.8473723E-2,-3.9684245E-1,6.944624E-1,6.12443E-2,6.4767665E-1,-1.7813902E-1,-1.7284934E-1,-4.8445854E-1,8.7375253E-1,-5.84437E-1,5.714943E-1,3.398014E-1,-5.079829E-1,-5.813466E-1,-1.3510866E0,-2.7601692E-1,-1.2787058E0,-3.0954129E-1,-5.813466E-1,-6.243164E-1,-3.2045358E-1,-2.4086905E-1,-1.1527436E0,-4.0597007E-1,-8.3265114E-1,-5.2338254E-1,2.5323933E-1,1.071308E0,-1.796999E-1,-1.2156705E0,-1.5893249E-1,4.6332946E-1,9.0617484E-1,-8.5831456E-2,-3.527374E-1,-3.8687763E-1,-8.019597E-1,-2.5244268E-2,-2.745379E-1,2.2568476E0,-1.4193784E0,-5.909345E-1,-7.076774E-1,9.5617205E-1,-1.6329734E-1,9.4758785E-1,-1.6626575E0,-3.1202757E-1,2.7303344E-1,2.0797547E-2,-1.0516775E0,-7.416328E-2,-3.3924133E-2,8.5766304E-1,-1.3588623E0,-6.78132E-1,7.6013523E-1,-1.0044369E0,-5.063404E-1,6.2056266E-2,2.513984E-1,1.5250119E0,-1.9734985E-1,-1.3823857E0,-8.927474E-1,-1.0304084E0,2.7974994E0,1.1328487E0,-1.3423787E0,-2.373329E0,-4.6621114E-1,-3.1110927E-1,1.9616846E0,1.582139E0,-7.6858646E-1,-1.9124816E-1,-4.3746138E-1,-1.6814705E-2,3.9651954E-1,-6.78551E-1,-4.291429E-1,1.4442642E-1,-4.931744E-1,-5.0102246E-1,-7.0672494E-1,-2.5262323E-1,1.6800015E0,5.2639136E0,1.4614993E-1,-1.760609E-1,3.3100371E0,1.5485356E0,-1.6534866E0,-1.2412584E0,-1.6425312E-1,-2.7076542E-2,-1.6160077E-1,-9.731296E-2,-1.4863887E-1,-7.3568486E-2,-1.4481454E-1,-1.0686826E-1,-8.240702E-2,-1.6885427E-1,-6.704449E-2,1.2502621E-1,-1.04425766E-1,-1.7032011E-1,-1.07020296E-1,-1.6698162E-1,1.0899617E-1,-1.6342534E-1,-1.0231546E-1,-3.952059E-2,1.4784025E-1,-1.3587627E-1,1.9521949E-1,5.077678E-2,6.0757883E-2,-8.296349E-2,-1.453312E-1,4.748995E-2,-1.3065468E-1,-9.0660796E-2,7.604001E-2,-1.0430235E-1,-9.9867575E-2,-7.248611E-2,-1.3971694E-1,-9.276307E-2,2.8654097E-2,-5.607602E-2,-8.5951485E-2,-1.7468197E-2,-1.0308738E-1,-1.8184339E-1,9.892472E-2,-1.5155324E-1,-9.414898E-2,-6.090605E-2,1.04350545E-1,-1.5284513E-1,-1.7542906E-1,1.7890852E-2,-1.4945896E-1,-6.3347265E-2,-1.0001111E-1,-4.221144E-2,-4.509976E-2,-5.2026804E-3,-1.5575713E-1,-3.751301E-2,-1.2583724E-1,-8.4387265E-2,-8.458657E-2,-2.6985064E-2,-8.135099E-2,-4.8134923E-2,-5.483789E-2,3.2194678E-2,-4.8749562E-2,3.3616137E-2,-1.5196333E-2,7.122912E-2,2.8009951E-2,-6.410269E-2,-8.77172E-2,-1.7146195E-1,-1.757875E-1,-4.7873836E-3,-7.4516766E-2,-1.7666219E-2,4.7246978E-2,-2.8684122E-2,3.7919775E-2,-7.149172E-3,-1.3751938E-2,-1.640737E-1,-1.09673075E-1,6.0742855E-2,-1.8270753E-1,-1.8704547E-2,1.2678908E-1,-1.72466E-1,6.526839E-2,-1.5428577E-1,-1.0534524E-1,6.280717E-2,-1.010192E-1,-4.321658E-2,-1.7297195E-1,-1.0017957E-1,1.4882836E-1,-1.1247516E-1,-1.541029E-1,1.0836925E-1,-1.00436844E-1,-1.8697558E-1,-2.117402E-2,-1.2969649E-1,1.5053992E-1,-7.916763E-2,2.088782E-2,-3.822707E-2,-3.1899564E-2,-4.4574016E-3,-9.0846494E-2,1.4217049E-1,1.6793573E-2,-1.1130869E-2,8.943876E-2,-1.18077934E-1,-1.0580756E-1,9.8076455E-2,1.5621804E-1,2.7692942E-2,-6.0564633E-2,9.363668E-2,-1.8162979E-4,-2.858004E-2,3.389591E-2,-2.9410087E-3,-6.6937E-2,2.6505862E-3,6.331171E-2,8.1516225E-3,-1.4778342E-3,1.2206117E-1,-1.4274804E-1,-8.8601895E-3,-2.4482455E-2,2.0503802E-2,9.314952E-2,-1.827796E-1,1.4424294E-2,4.8108693E-2,8.043257E-2,1.1319845E-2,-1.5070653E-3,-1.3547173E-1,-1.3099951E-2,7.470917E-3,-2.4315747E-2,-1.878856E-1,1.5585638E-2,4.7785252E-2,-2.2409078E-2,6.272367E-2,1.0719448E-1,-6.746548E-2,-1.0719778E-1,1.16428845E-1,1.20476924E-1,-1.6802458E-1,-1.954159E-1,-4.844213E-2,1.3071486E-1,-8.379578E-2,1.707255E-2,3.7143115E-2,6.802928E-2,3.278343E-2,-5.1042374E-2,3.0588556E-2,7.4461214E-2,2.4406072E-2,5.8921095E-2,3.2822337E-2,6.770396E-2,1.1744546E-1,-1.0373326E-1,6.1962247E-2,-2.0026472E-1,2.5603637E-2,4.4125088E-2,9.77494E-2,-1.4532767E-1,2.8336903E-2,8.823061E-2,-1.0783553E-1,5.3938847E-2,-1.417911E-1,-4.3773104E-2,5.9027918E-2,-3.3098396E-2,8.921071E-2,7.816775E-2,4.9776085E-2,2.0318804E-2,4.6624046E-2,3.0325342E-2,-9.14007E-3,9.0214275E-2,-3.3807304E-2,4.717884E-2,7.914263E-2,-3.4956854E-2,5.707711E-2,6.6496424E-2,4.6050053E-2,1.5959251E-1,5.22403E-2,1.3881364E-1,-8.397301E-2,8.740984E-2,-1.5893492E-1,1.10579036E-1,1.3017517E-1,-1.8448992E-1,2.8700691E-3,-7.0961885E-2,1.3178204E-1,-5.7292767E-2,9.921768E-2,7.59256E-2,1.11958005E-1,5.9065938E-2,1.1796844E-1,7.084874E-2,1.2183912E-1,-2.6393026E-2,9.675894E-2,6.0679253E-2,8.499536E-2,9.477063E-2,4.9060013E-2,3.9803732E-2,1.05056815E-1,9.9003226E-2,6.0651064E-2],"split_indices":[6,6,6,6,6,6,6,1,1,9,7,7,7,10,10,6,4,6,7,7,2,0,2,2,0,10,7,7,6,11,9,9,16,4,6,3,7,2,10,2,16,9,7,11,3,16,7,11,6,11,6,17,1,2,6,9,11,11,9,2,6,2,6,0,8,4,2,6,10,0,0,1,9,12,3,10,11,10,9,11,4,10,9,6,16,17,10,7,16,0,4,1,0,4,3,18,10,10,11,10,10,11,8,12,2,3,11,7,6,16,2,11,1,9,6,4,8,12,1,10,4,4,6,11,2,3,10,17,17,6,17,17,3,7,2,0,9,6,1,4,12,3,2,10,1,10,11,4,10,11,10,2,16,6,10,0,6,2,7,2,9,8,0,0,6,12,4,2,2,12,18,0,6,1,1,18,10,6,16,0,4,12,7,11,10,8,11,0,4,8,6,4,4,2,2,9,10,2,12,10,9,0,2,12,2,6,18,0,0,16,2,11,10,0,0,18,18,6,12,18,10,9,7,4,2,1,9,9,7,9,10,10,0,12,10,0,0,11,2,17,9,1,0,6,6,4,0,9,11,8,3,0,0,0,0,0,0,0,0,0,0,0,0,0,0,0,0,0,0,0,0,0,0,0,0,0,0,0,0,0,0,0,0,0,0,0,0,0,0,0,0,0,0,0,0,0,0,0,0,0,0,0,0,0,0,0,0,0,0,0,0,0,0,0,0,0,0,0,0,0,0,0,0,0,0,0,0,0,0,0,0,0,0,0,0,0,0,0,0,0,0,0,0,0,0,0,0,0,0,0,0,0,0,0,0,0,0,0,0,0,0,0,0,0,0,0,0,0,0,0,0,0,0,0,0,0,0,0,0,0,0,0,0,0,0,0,0,0,0,0,0,0,0,0,0,0,0,0,0,0,0,0,0,0,0,0,0,0,0,0,0,0,0,0,0,0,0,0,0,0,0,0,0,0,0,0,0,0,0,0,0,0,0,0,0,0,0,0,0,0,0,0,0,0,0,0,0,0,0,0,0,0,0,0,0,0,0,0,0,0,0,0,0,0,0,0,0,0,0,0,0,0,0,0,0,0,0,0,0,0,0,0,0,0,0,0,0],"split_type":[0,0,0,0,0,0,0,0,0,0,0,0,0,0,0,0,0,0,0,0,0,0,0,0,0,0,0,0,0,0,0,0,0,0,0,0,0,0,0,0,0,0,0,0,0,0,0,0,0,0,0,0,0,0,0,0,0,0,0,0,0,0,0,0,0,0,0,0,0,0,0,0,0,0,0,0,0,0,0,0,0,0,0,0,0,0,0,0,0,0,0,0,0,0,0,0,0,0,0,0,0,0,0,0,0,0,0,0,0,0,0,0,0,0,0,0,0,0,0,0,0,0,0,0,0,0,0,0,0,0,0,0,0,0,0,0,0,0,0,0,0,0,0,0,0,0,0,0,0,0,0,0,0,0,0,0,0,0,0,0,0,0,0,0,0,0,0,0,0,0,0,0,0,0,0,0,0,0,0,0,0,0,0,0,0,0,0,0,0,0,0,0,0,0,0,0,0,0,0,0,0,0,0,0,0,0,0,0,0,0,0,0,0,0,0,0,0,0,0,0,0,0,0,0,0,0,0,0,0,0,0,0,0,0,0,0,0,0,0,0,0,0,0,0,0,0,0,0,0,0,0,0,0,0,0,0,0,0,0,0,0,0,0,0,0,0,0,0,0,0,0,0,0,0,0,0,0,0,0,0,0,0,0,0,0,0,0,0,0,0,0,0,0,0,0,0,0,0,0,0,0,0,0,0,0,0,0,0,0,0,0,0,0,0,0,0,0,0,0,0,0,0,0,0,0,0,0,0,0,0,0,0,0,0,0,0,0,0,0,0,0,0,0,0,0,0,0,0,0,0,0,0,0,0,0,0,0,0,0,0,0,0,0,0,0,0,0,0,0,0,0,0,0,0,0,0,0,0,0,0,0,0,0,0,0,0,0,0,0,0,0,0,0,0,0,0,0,0,0,0,0,0,0,0,0,0,0,0,0,0,0,0,0,0,0,0,0,0,0,0,0,0,0,0,0,0,0,0,0,0,0,0,0,0,0,0,0,0,0,0,0,0,0,0,0,0,0,0,0,0,0,0,0,0,0,0,0,0,0,0,0,0,0,0,0,0,0,0,0,0,0,0,0,0,0,0,0,0,0,0,0,0,0,0,0,0,0],"sum_hessian":[1.310893E5,4.7088035E4,8.4001266E4,2.4394834E4,2.26932E4,3.6965457E4,4.703581E4,6.916198E3,1.7478635E4,1.1721961E4,1.0971239E4,1.6909873E4,2.0055584E4,3.048758E4,1.6548229E4,5.401987E3,1.5142115E3,1.201929E4,5.459345E3,8.913327E3,2.8086338E3,1.2206172E3,9.750622E3,7.4170903E3,9.492783E3,6.223309E3,1.3832274E4,4.971304E3,2.5516275E4,3.031655E3,1.3516572E4,1.301239E3,4.1007476E3,1.4954415E3,1.8770035E1,6.3278433E3,5.6914473E3,2.5062917E3,2.9530537E3,4.243397E3,4.66993E3,4.2356E2,2.3850737E3,1.646646E2,1.0559526E3,2.554564E2,9.495165E3,1.649696E2,7.2521206E3,8.38418E3,1.1086038E3,5.5909097E3,6.3239954E2,1.1677269E4,2.1550059E3,6.976759E2,4.2736284E3,1.7021516E4,8.49476E3,2.1713916E3,8.6026355E2,7.4023223E3,6.1142505E3,8.2092175E2,4.8031726E2,3.9810085E3,1.1973906E2,7.1944104E2,7.7600055E2,1.6311941E1,2.4580925E0,1.5633768E2,6.1715054E3,4.244266E3,1.4471812E3,6.1265784E2,1.8936339E3,2.643219E2,2.6887317E3,1.4775103E3,2.765887E3,4.278733E3,3.9119705E2,2.0231801E2,2.2124197E2,7.28885E2,1.6561888E3,6.911442E1,9.555018E1,9.184788E2,1.3747377E2,9.056965E1,1.6488676E2,5.690059E3,3.805106E3,2.9121857E1,1.3584775E2,3.4249456E3,3.8271748E3,1.8088744E3,6.575305E3,9.241989E2,1.8440488E2,4.1187803E3,1.4721295E3,5.908674E2,4.153222E1,1.339132E2,1.1543355E4,9.117931E2,1.2432128E3,6.618369E1,6.3149225E2,2.25296E3,2.0206686E3,9.013435E3,8.0080806E3,2.9473452E3,5.547414E3,3.701865E2,1.8012051E3,1.4180624E2,7.184573E2,3.8510222E3,3.5513E3,4.4280205E3,1.6862302E3,4.670096E1,4.336163E2,4.581943E2,3.5228142E3,6.638618E1,5.3352882E1,1.9080244E2,5.2863855E2,1.3252422E2,6.434763E2,5.932387E0,1.0379555E1,1.1473516E2,4.1602528E1,2.659341E3,3.5121643E3,3.3842256E3,8.600405E2,3.5455145E2,1.0926296E3,5.67447E2,4.5210842E1,1.8300798E3,6.3554054E1,6.2467907E1,2.0185399E2,6.6904803E2,2.0196837E3,4.1819174E2,1.0593185E3,1.0722793E3,1.6936077E3,3.9403306E3,3.3840237E2,3.8170422E2,9.492845E0,1.0453887E1,1.9186412E2,1.6669089E2,5.4551086E1,5.669329E2,1.6195213E2,1.6076157E3,4.8573112E1,4.4185837E1,2.4928583E1,8.42359E1,1.1314276E1,7.400541E1,8.4447345E2,1.2530223E2,1.2171535E1,8.430352E0,8.21393E1,1.492394E2,1.5647371E1,4.8471738E2,5.205342E3,9.011271E1,3.7149932E3,5.672214E0,2.3449642E1,1.300168E2,5.8309445E0,8.280717E1,3.3421384E3,3.556457E3,2.707179E2,7.4027E2,1.0686044E3,4.5545527E3,2.0207521E3,1.0356309E1,9.1384265E2,3.9964814E0,1.8040839E2,5.0189342E1,4.0685908E3,7.611607E1,1.3960134E3,5.40147E2,5.0720367E1,1.6061575E1,2.5470642E1,1.11590096E2,2.232309E1,8.762056E3,2.7812998E3,5.115519E2,4.0024115E2,1.0091624E3,2.340503E2,4.5910294E1,2.02734E1,3.5489496E2,2.7659726E2,2.226232E3,2.6727985E1,1.4177844E3,6.0288416E2,5.0941997E3,3.9192354E3,7.6023115E3,4.0576886E2,2.939387E3,7.9583383E0,2.4236278E2,5.3050513E3,2.704365E2,9.974999E1,1.1352424E1,1.7898527E3,1.0969839E2,3.2107857E1,1.2576054E2,5.926967E2,7.1358167E2,3.1374407E3,3.5478499E3,3.4500825E0,3.7258335E3,7.021869E2,7.139149E2,9.723153E2,2.4042688E1,2.2658268E1,4.235442E2,1.0072119E1,2.5171458E2,2.0647974E2,3.3403467E3,1.8246748E2,2.9047775E1,3.7338406E1,4.1089195E1,1.2263685E1,1.0606447E1,1.80196E2,4.156371E2,1.1300148E2,1.5905155E0,1.309337E2,4.1113696E2,2.3233937E2,3.203104E0,2.7292829E0,8.016466E0,2.363089E0,6.2529495E1,5.220566E1,3.639461E1,5.2079153E0,2.450268E3,2.09073E2,1.881573E1,3.4933486E3,2.153139E3,1.2310865E3,4.2865375E2,4.3138678E2,7.512466E1,2.7942682E2,9.488298E2,1.437999E2,5.143303E2,5.3116676E1,2.3951283E1,2.1259558E1,3.9851126E2,1.4315686E3,1.8579931E0,6.1696064E1,1.8359392E1,4.4108517E1,1.5188133E2,4.9972652E1,2.1959528E2,4.4945276E2,9.173189E2,1.1023647E3,4.665285E1,3.7153888E2,4.6933383E2,5.899847E2,3.0267957E2,7.695997E2,1.2322449E3,4.6136273E2,3.8882717E3,5.205878E1,1.8709373E2,1.5130864E2,3.4031836E2,4.138585E1,1.0247871E2,8.9385414E1,1.2156102E2,4.5129868E1,9.7154255E0,4.4835663E1,3.6368976E2,2.0324315E2,6.3963146E1,9.798898E1,2.9511832E2,1.3124973E3,1.463595E1,3.393716E1,1.645412E1,2.7731718E1,1.746497E1,7.463614E0,1.6153548E0,8.2620544E1,7.320559E0,3.9937167E0,1.6190376E1,5.7815037E1,1.0225615E2,7.422173E2,5.1907806E1,7.3394424E1,1.0678254E1,1.4932803E0,4.47044E0,3.9599128E0,3.0098394E1,5.20409E1,8.278942E1,6.644997E1,9.053847E0,6.593524E0,3.394488E2,1.452686E2,4.653228E3,5.521138E2,8.477465E1,5.338056E0,7.349313E2,2.980062E3,2.1261217E1,2.1884255E0,1.25809494E2,4.20731E0,3.2311027E0,2.599842E0,1.8955904E1,6.385126E1,1.0697803E3,2.2723582E3,2.614508E2,3.295006E3,1.4983365E2,1.2088425E2,5.0775266E2,2.325174E2,1.0391141E3,2.9490135E1,2.4724352E1,4.5298286E3,3.6381433E2,1.6569377E3,1.8658872E0,8.490421E0,6.3844385E2,2.7539877E2,1.541894E2,2.6218988E1,1.9406275E1,3.0783068E1,1.5032028E3,2.5653882E3,6.2394104E1,1.3721971E1,1.0647904E3,3.312231E2,3.8987007E1,5.0115997E2,7.9621835E0,4.2758183E1,8.351096E0,7.710479E0,1.6153861E0,2.3855257E1,1.346453E1,9.8125565E1,1.6467346E1,5.855743E0,6.4169814E3,2.3450737E3,5.230307E2,2.258269E3,4.490096E1,4.6665097E2,2.392362E2,1.6100496E2,6.254317E2,3.8373068E2,1.565405E2,7.750981E1,1.3183121E1,3.2727173E1,1.7669884E1,2.603514E0,2.1141612E2,1.4347884E2,1.2326908E1,2.6427036E2,2.2184282E3,7.8037357E0,1.6438684E1,1.02893E1,5.0048134E1,1.3677362E3,1.4665129E1,5.88219E2,1.7833536E3,3.310846E3,1.733387E3,2.1858484E3,7.1504463E3,4.5186554E2,3.590281E2,4.674076E1,6.7028E2,2.269107E3,1.4330634E2,9.905644E1,1.6488198E3,3.6562317E3,2.683669E2,2.0695798E0,9.472731E1,5.022677E0,8.122239E0,3.230185E0,1.3973486E3,3.9250406E2,5.454364E0,1.04244026E2,4.822948E0,2.7284908E1,2.0923641E1,1.0483689E2,7.174307E1,5.209537E2,1.4617911E2,5.674025E2,2.941917E3,1.9552345E2,1.9987925E1,3.5278618E3,3.27351E3,4.5232346E2,5.660921E2,1.3609477E2,6.4773415E1,6.491415E2,3.0517978E2,6.6713556E2],"tree_param":{"num_deleted":"0","num_feature":"19","num_nodes":"487","size_leaf_vector":"1"}},{"base_weights":[1.1803452E-3,-6.538863E-1,3.5770416E-1,-1.0077564E0,-4.255176E-1,1.753458E-1,6.545981E-1,-1.2485994E0,-8.6334205E-1,-5.8382905E-1,-2.8639725E-1,8.790464E-3,2.9306012E-1,5.279896E-1,8.1342167E-1,-1.4882516E0,-1.1673307E0,-9.366906E-1,-5.141633E-1,-7.25917E-1,-4.214362E-1,-4.1470012E-1,-1.993758E-1,-8.7474575E-3,3.1440914E-1,1.6750129E-1,3.544127E-1,6.922052E-1,4.8311213E-1,1.1817496E0,7.842252E-1,-1.5583531E0,-1.282665E0,-1.2507807E0,-9.1289973E-1,-1.1335442E0,-8.4806985E-1,-6.4415985E-1,1.14591874E-1,-5.474811E-1,-8.1991845E-1,-7.2677624E-1,-3.116762E-1,-7.6044345E-1,-3.8025543E-1,-4.63915E-1,-1.7307971E-1,1.5776454E-1,-3.4212284E-2,-5.9009504E-2,3.9244214E-1,2.6959088E-2,2.3611045E-1,2.8526857E-1,4.2160603E-1,9.3520415E-1,6.484096E-1,-1.15188144E-1,4.9402004E-1,1.2100029E0,2.6933295E-1,7.2675544E-1,8.9186734E-1,-1.5630406E0,1.3065474E-1,-1.5986489E-1,-1.0875779E0,-1.2756575E0,-7.832861E-1,-1.1244649E0,-6.860142E-1,-1.1422323E0,9.450034E-1,-9.028119E-1,-5.3447014E-1,-1.2980734E0,-5.3942746E-1,-7.8819764E-1,5.01079E-1,-3.442056E-1,-7.512433E-1,-1.1351141E0,-7.561019E-1,-8.5378003E-1,-3.139595E-1,-3.765281E-1,8.4907584E-2,-8.3777887E-1,3.7806156E-1,-5.7219034E-1,-3.317772E-1,-2.406196E-1,-9.03451E-1,-2.4970646E-1,-5.3281266E-2,4.5886135E-1,4.4660058E-2,-1.5530515E-1,2.5910998E-2,-3.2711664E-1,5.478678E-1,4.0726086E-1,-1.7095213E-1,6.513596E-1,-7.7594846E-4,3.1199026E-1,1.3085538E-1,2.3866025E-1,4.4514287E-1,-3.766756E-1,4.326016E-1,1.1003577E0,5.3831905E-1,6.654334E-1,-1.268379E-1,-6.385026E-1,1.4094622E-1,4.479933E-1,6.0858226E-1,1.2135396E0,-5.2571846E-3,-1.5307356E-1,1.3877092E-1,9.0763706E-1,6.878113E-1,9.102687E-1,6.6346717E-1,-1.5675386E0,1.204973E-1,7.994712E-2,-1.2120969E0,-2.6317826E-1,-1.2858981E0,-1.1002636E0,8.843857E-3,-1.1827546E0,4.465301E-1,-7.499024E-1,5.360818E-1,-5.843037E-1,-1.1638919E0,1.4445913E0,-1.1605542E-1,-9.103189E-1,1.1119248E0,-2.8919613E-1,-1.1996448E0,4.883406E-1,-1.3463341E0,-4.5950505E-1,-1.2453735E0,-1.2146821E0,-4.8589915E-2,7.202571E-2,1.1164455E0,-6.3335794E-1,-8.302836E-2,-8.1134605E-1,5.0734913E-1,-8.4102577E-1,-1.2672731E0,-3.126938E-1,-7.9123247E-1,-6.6925216E-1,-1.1313279E0,3.8710836E-1,-4.48798E-1,-5.5143976E-1,-2.649256E-1,-1.23905376E-1,3.9669085E-1,-1.1438655E0,-6.329819E-1,8.620302E-1,-1.6231196E-1,-6.683013E-1,-1.8239795E-1,-7.5986165E-1,-3.0452526E-1,-1.6931348E-1,-1.2787169E0,-1.3355238E0,1.09000094E-1,-1.7983814E-1,-4.9295685E-1,3.4933906E-2,-2.3383147E-1,8.8540536E-1,3.7236795E-1,-4.3875985E-3,4.4331908E-1,-4.652373E-1,-1.1103362E-1,-1.5161411E-1,1.3272966E-1,-9.277528E-2,-1.6285124E0,1.2055538E0,1.7610851E-1,3.6391458E-1,1.0006714E0,8.2980525E-1,-9.886645E-1,-6.671308E-2,2.6776272E-1,3.4524608E-1,-2.4714369E-1,1.9524157E-1,-3.5157967E-2,4.1960543E-1,1.7558414E-1,5.1155436E-1,2.5909933E-1,-1.6123098E0,-1.1200776E-1,4.8514345E-1,2.745157E-1,1.1292201E0,-4.8386475E-1,-1.8084644E-1,6.0007054E-1,7.158778E-1,4.517383E-1,-1.1136835E0,2.893164E-1,6.473389E-1,-1.060059E0,-4.816057E-1,3.6862105E-1,4.5025444E-1,-1.884789E-1,5.559892E-1,8.8505554E-1,1.2944267E0,1.1485094E0,1.0223898E0,-7.030696E-1,9.754475E-1,6.867492E-1,3.973017E-1,6.998545E-1,8.522345E-1,1.0006133E0,1.1976666E0,4.2671475E-1,-1.5898858E-1,-1.4555776E-1,-1.4673458E-1,1.1061578E-1,-1.254312E-1,3.750467E-2,3.165178E-2,-1.5135628E-1,-1.288946E-1,1.1798121E-1,6.785515E-2,-1.2120382E-1,-3.3553343E-2,1.7493032E-1,-2.697641E-2,-1.2311494E-1,-1.4589952E-1,1.1116848E-1,-7.962891E-2,8.465315E-2,-1.5625179E-1,1.4170003E-1,-8.273246E-2,1.2378162E-1,-1.2573011E-1,-9.812461E-2,-9.305998E-2,1.850238E-1,-1.2795341E-1,-8.781921E-2,1.5880731E-1,-1.3162139E-1,-7.8543E-2,-6.351394E-3,-1.3266209E-1,1.0612704E-1,-1.04412846E-1,1.1313114E-1,2.1502025E-2,-1.3944763E-1,-8.337838E-2,-3.4899097E-2,-1.7798318E-1,-7.736062E-2,2.33311E-2,-1.5917747E-1,7.209169E-2,-1.628057E-1,-2.104009E-2,1.1387686E-1,6.80555E-2,1.4166588E-1,9.71202E-3,-7.449653E-2,5.187418E-2,-2.392985E-2,-4.374028E-2,-9.801229E-2,7.429273E-2,-1.5600899E-1,5.431387E-2,-9.421902E-2,-1.5535684E-1,-1.05512775E-1,3.2629364E-3,-6.2363E-2,-8.151217E-2,-9.23523E-3,-6.0931604E-2,-1.5176821E-1,-4.1442163E-2,-1.23304926E-1,-1.3256396E-2,1.2458857E-1,-5.695218E-2,7.344712E-2,-6.4851634E-2,-1.37192225E-2,-8.18243E-2,-2.1896916E-2,1.0080023E-2,-5.2788656E-2,-1.6381961E-1,4.463452E-2,2.690038E-4,-1.3036767E-1,-8.462165E-2,-2.2149177E-2,1.0675073E-1,-1.2763433E-1,-3.0305585E-2,-7.568586E-2,-1.1971338E-2,-1.6775088E-1,-1.412351E-1,-4.9126007E-2,-6.9386223E-3,-3.6043778E-2,1.6215334E-2,-3.889129E-2,1.03998564E-1,-1.4452499E-1,-1.3921404E-1,9.1625E-2,4.1686002E-2,-1.0277857E-1,-4.623418E-3,-3.2828446E-2,-7.98618E-2,-3.5628077E-2,5.3110463E-3,-9.402334E-2,-3.88093E-2,7.0090964E-3,9.458401E-2,-1.4699057E-1,4.217074E-2,-3.6485873E-2,-1.6646897E-2,1.0088166E-2,5.793621E-2,-6.412097E-2,4.0290955E-2,-5.4666813E-2,1.1113398E-3,-2.3793308E-2,-1.02029955E-2,-4.1828196E-2,2.4374058E-2,1.7899799E-3,-4.9304176E-2,3.5443857E-2,4.714593E-2,-1.9112334E-1,1.4417432E-1,-1.2658751E-1,-1.7432542E-1,5.675177E-2,4.0542763E-2,-1.4021693E-1,-3.753518E-2,1.2967142E-1,9.33487E-2,-9.187217E-2,-1.8260054E-1,9.317001E-2,-4.8604723E-2,-2.2912945E-3,-7.996437E-2,3.2676913E-2,3.8936537E-2,7.391363E-4,-1.1120583E-1,2.5450965E-2,1.5907269E-2,5.0082266E-2,-2.3816388E-2,1.9685244E-2,6.94546E-2,2.9328296E-2,1.9237373E-2,-6.71654E-2,-1.8689489E-2,5.3206075E-2,3.37975E-2,-6.989997E-2,1.1030535E-1,-1.8446772E-1,-1.121498E-1,1.7118795E-2,5.043251E-2,1.350416E-2,3.3831123E-2,-4.6548318E-2,-4.3825872E-2,1.14410356E-1,-1.835462E-1,9.101214E-2,8.18437E-2,1.49218505E-2,6.857476E-2,1.0966458E-1,5.190865E-2,-4.366168E-2,1.3271399E-1,-1.6166942E-1,4.408092E-2,-1.5897496E-1,9.836444E-2,-1.5185294E-1,2.6800765E-2,-1.4104891E-1,-9.7360745E-2,7.6932505E-2,5.886803E-2,-5.4788183E-2,1.9853234E-2,4.7110092E-2,5.270318E-2,8.6324826E-2,-1.8663959E-1,9.1656744E-2,1.11627124E-1,1.3911027E-1,1.060457E-1,1.3624248E-1,1.4084177E-1,1.0857072E-2,-2.030685E-1,5.408419E-2,9.953222E-2,3.607051E-2,-7.0236176E-2,7.887378E-2,4.4439476E-2,-1.8866764E-1,6.564642E-2,7.781493E-2,4.223409E-3,8.657054E-2,1.1617185E-1,8.992509E-2,4.7037803E-2,1.4167185E-1,7.862398E-2,-5.7059037E-3],"categories":[],"categories_nodes":[],"categories_segments":[],"categories_sizes":[],"default_left":[0,0,0,0,0,0,0,0,0,0,0,0,0,0,0,0,0,0,0,0,0,0,0,0,0,0,0,0,0,0,0,0,0,0,0,0,0,0,0,0,0,0,0,0,0,0,0,0,0,0,0,0,0,0,0,0,0,0,0,0,0,0,0,0,0,0,0,0,0,0,0,0,0,0,0,0,0,0,0,0,0,0,0,0,0,0,0,0,0,0,0,0,0,0,0,0,0,0,0,0,0,0,0,0,0,0,0,0,0,0,0,0,0,0,0,0,0,0,0,0,0,0,0,0,0,0,0,0,0,0,0,0,0,0,0,0,0,0,0,0,0,0,0,0,0,0,0,0,0,0,0,0,0,0,0,0,0,0,0,0,0,0,0,0,0,0,0,0,0,0,0,0,0,0,0,0,0,0,0,0,0,0,0,0,0,0,0,0,0,0,0,0,0,0,0,0,0,0,0,0,0,0,0,0,0,0,0,0,0,0,0,0,0,0,0,0,0,0,0,0,0,0,0,0,0,0,0,0,0,0,0,0,0,0,0,0,0,0,0,0,0,0,0,0,0,0,0,0,0,0,0,0,0,0,0,0,0,0,0,0,0,0,0,0,0,0,0,0,0,0,0,0,0,0,0,0,0,0,0,0,0,0,0,0,0,0,0,0,0,0,0,0,0,0,0,0,0,0,0,0,0,0,0,0,0,0,0,0,0,0,0,0,0,0,0,0,0,0,0,0,0,0,0,0,0,0,0,0,0,0,0,0,0,0,0,0,0,0,0,0,0,0,0,0,0,0,0,0,0,0,0,0,0,0,0,0,0,0,0,0,0,0,0,0,0,0,0,0,0,0,0,0,0,0,0,0,0,0,0,0,0,0,0,0,0,0,0,0,0,0,0,0,0,0,0,0,0,0,0,0,0,0,